solver_type L2R_L2LOSS_SVC_DUAL
nr_class 2
label 1 -1
nr_feature 24576
bias -1
w
-0.1363246290642717 
0.09549886097880099 
-0.1912263116146467 
0.1823787257782474 
-0.2697907286514471 
0.2651793867520133 
0.1510135953920137 
-0.07386060798337814 
0.002513121755382995 
0.08550223751269882 
-0.02761829134629438 
0.2721921524615582 
0.425417152426014 
-0.4803813289699122 
-0.04352451009917274 
0.003196306399429895 
0.08387913528180797 
-0.2080599510556532 
0.2600231040564426 
0.4254480244608155 
0.1002201193713524 
-0.2137458673730263 
0.004591801883259189 
0.1169010631567494 
0.2679723582667466 
-0.3748099864827018 
-0.4033728226258143 
-0.1154978750994746 
-0.3702616902604663 
0.1359300880737666 
0.2119386133973281 
0.02215851812403973 
0.681093072417107 
0.1334071577665363 
-0.3956510357998988 
-0.0330406800820344 
-0.1010315063412431 
-0.06885574844968405 
0.002997286966882291 
-0.196195654385744 
-0.4860826631830365 
-0.4237049552900665 
-0.04798137951117126 
-0.2000206832928238 
-0.02671290409627093 
0.435189100486011 
-0.1471308562824052 
0.3401407309890243 
-0.01825990408665078 
0.324645701493762 
0.1337909636687639 
-0.2768612022567 
0.5690337978231644 
-0.2175999569088417 
-0.07212688881760336 
0.3091784280031558 
-0.172279256347589 
-0.1686892790892603 
-0.1895896978298764 
0.05500052862243862 
0.1684687537283428 
0.1345390454205572 
0.4012396828199442 
0.475017612921261 
-0.08289458469900814 
-0.4600872401372246 
-0.1312398421622471 
-0.5412806166701484 
0.3488480920367475 
0.5307150205319812 
-0.0004997600723247884 
0.3745544135747492 
0.3065575490717317 
-0.01955747458355761 
0.02319900001437015 
0.1565773328027605 
0.01504208896434275 
-0.6993664214943851 
0.1278716404447794 
0.04298599783985938 
-0.4279328434782611 
-0.01859358040652231 
0.200371848159764 
-0.05940768120537641 
0.1161399820955761 
-0.3799280783155243 
0.5482042102644743 
0.5680474026100675 
0.2045925007052344 
-0.3533516831673072 
0.14497527255094 
-0.1626150128187081 
0.655760191533403 
0.01646997359001885 
-0.7137056530339027 
-0.08002872636392514 
-0.0994495986097788 
-0.1592708048158017 
0.001217749531395062 
0.01569375487299999 
0.08288812411850974 
-0.4378578371472418 
0.005300569580013241 
-0.1569053986356082 
0.09310724242134764 
0.09632427285826438 
0.1973302273169679 
-0.4585724681296158 
0.2960987767054639 
0.6845113778413517 
0.1726756223269723 
-0.01030580840951658 
0.7464929520528567 
0.2292683799993817 
0.3335669658653653 
0.4020390979055598 
-0.5087450319625326 
0.4605595846070149 
-0.2855554481881819 
-0.05503685849333288 
0.1844120333458962 
-0.07005507494872351 
0.259684193468537 
-0.2474988597947587 
0.184558890878605 
0.5705856833073153 
-0.123961588882526 
0.2869525848068312 
0.04247520455613749 
0.4472586535993549 
0.1749715429392467 
-0.1197423239919433 
-0.1887944601701684 
0.7279816080493055 
-0.2762177821273577 
-0.2688751534842987 
0.3430508558999973 
0.1698851121847934 
0.3239233220424701 
0.2957797454873448 
0.06495555657564943 
-0.230020478266711 
-0.02882885482922949 
0.3431076654754052 
0.05663849903294863 
-0.02239312255964741 
0.2954415125687767 
0.0772419252549322 
0.1268094960916622 
0.06815066029254395 
0.5992629818406408 
0.6971962899165574 
-0.3403681751066175 
-0.3594885303789676 
-0.005952423280610471 
0.04494237026236123 
0.2951892470645924 
0.1253173709767687 
-0.3147155961563734 
-0.1952566518220149 
-0.1144125176497899 
-0.1298354764079756 
0.375433339155577 
-0.3738353401575962 
-0.3395747949529392 
0.1098953346864011 
0.08663956595677813 
0.08441848695977786 
0.5870505799527425 
0.1207781833351239 
0.09031887399771914 
-0.2831823415910027 
-0.2687294647956761 
0.001189036508600339 
0.09386525836333459 
0.0147136715433668 
0.444906117018645 
0.2871178984025944 
-0.2963300604357375 
0.2287238220968303 
0.4642644849340166 
-0.3210247177862061 
0.1268032245487189 
-0.454091020046355 
-0.374808926664151 
0.1943422496024388 
0.2507787763733576 
0.4584881185307567 
0.09065661950262829 
-0.3937086815961756 
-0.3416263076634374 
-0.1543969619310972 
0.07339073490360822 
0.1995294898593439 
-0.06120854211700488 
0.2845899390077484 
0.1249772266820167 
-0.2996915052021609 
0.1852759847493447 
-0.1465115685347905 
-0.05501543502046499 
-0.1452901341257953 
-0.209740169718932 
0.05223483833475483 
0.6533959912285287 
-0.2341617077589306 
-0.1073755400063572 
0.251220419551888 
0.08886601105310475 
0.2344659044881847 
0.004351877578568641 
-0.6049107966167587 
0.3257522077065126 
-0.1267258749062146 
-0.3424689302810689 
-0.5722543127432266 
0.2595031731476887 
-0.1365767285611083 
0.02230198544009893 
0.008948159860852479 
0.3013381670073556 
-0.2061246683227629 
0.4171852222992827 
-0.2248666106904786 
0.0653478811040584 
-0.04426013494401051 
-0.3101321729345211 
-0.08808516780014347 
-0.2637605522273113 
0.3089819200069044 
-0.2564423430922631 
-0.06167437799502532 
-0.1171618596200734 
0.2371277320487512 
0.6330426028745896 
0.856255735165975 
0.006418175799660195 
0.0220167175220191 
0.1743875688964789 
0.09293948907353393 
0.2926576272747429 
0.143041767340424 
-0.209103591428699 
-0.03121164392803484 
0.3159532698874148 
0.4247386510982535 
0.3090087315144286 
-0.232287802883799 
0.05010702444178274 
0.1402700775445987 
-0.00548045893725599 
-0.5254447484068294 
-0.1579434710029657 
-0.1964490428068211 
0.8048319337158749 
0.2932435610288313 
-0.1704820694623868 
-0.1910718242558907 
0.1540518205513096 
0.1809936222158203 
0.1359016124780707 
0.3382793742373589 
-0.4076833395760584 
0.06731521403828376 
0.08338830742374667 
-0.3603944662294786 
0.06156534997710957 
-0.140583292099364 
-0.2397384175527567 
-0.1660938589421555 
-0.2215098623328631 
0.2740173626433485 
0.1989633322929128 
-0.1150455161559685 
0.2751578560679307 
0.4608062039312004 
0.18771901617586 
0.2729574943126269 
0.1792579288297033 
0.5674779832308764 
-0.06303700838764687 
-0.266662652475946 
0.2959843728269164 
0.4408691950859689 
-0.0728291493416844 
0.0188164441286266 
0.1302282157667279 
0.6129370181559192 
0.001443709820008478 
-0.03166042898820654 
0.5552058980318184 
0.09092685624861015 
-0.0993726154660959 
-0.2330551636675647 
0.1484034378532525 
-0.270436345918916 
-0.0472289642606732 
-0.2276603660795557 
-0.1412154338890999 
-0.2663315058824504 
-0.689579943619327 
0.2474306520496927 
-0.1958049270973167 
0.1019111408159394 
-0.1301635847744649 
0.03512870605284171 
-0.03014543208283993 
-0.3470721567955119 
0.4122718510274643 
-0.4031453508058264 
-0.2296836823811715 
0.1128947312980289 
-0.07236934494838723 
0.5896440881870824 
0.0811687061328646 
0.05924900641907197 
0.06024084267896777 
0.5596859672674253 
0.1655855888035915 
-0.1535558757682649 
-0.01944955919152127 
0.375351483644524 
-0.2095194951711496 
-0.0274025282560901 
-0.3774106792594105 
-0.02482503813665281 
0.02231970302453273 
0.5188945545600782 
-0.3977006393817649 
-0.2197088306887051 
0.01428610542094582 
0.01986491379226286 
0.5163984368814866 
-0.3614153307463369 
0.06503578279474162 
0.3050377062612113 
0.4140435403013251 
0.5770939334975388 
-0.08761173532881721 
0.6291999560229949 
-0.1027339085631562 
-0.3164790059158808 
0.1044930252771092 
0.1237533271502538 
-0.1237008920180383 
-0.3884312001947958 
-0.3349551959943104 
0.2035385101723138 
0.4212259632181279 
-0.1236278256805731 
0.5364319352926736 
-0.3676681170089685 
-0.03035484891216365 
-0.2374806147560907 
0.1060037670157038 
-0.02498834462778998 
-0.1135663630374067 
0.7231656377710902 
-0.4713737594940413 
0.3769949742164789 
0.09840303145774779 
0.03111866694713155 
0.5114808357616707 
-0.005503095554853335 
-0.01809156237237664 
0.5167604960283502 
-0.01463289772922891 
0.05018258303598419 
-0.1992540816071546 
0.1228437383695993 
0.002449048248573559 
0.09028382758273744 
-0.03888609528709467 
0.08143231039573093 
-0.001806257401649678 
-0.2384346411464409 
0.1460696556523349 
-0.3053165025612911 
-0.166917477526318 
0.01745301459553292 
-0.002275027328792112 
-0.0739063927440111 
-0.3314832273965352 
-0.2588616524355266 
-0.2070898180570676 
0.08762514244691343 
-0.062345181352268 
0.204783201130822 
-0.3436448832937853 
-0.2086062669653405 
0.2833668225927715 
-0.116908665130013 
-0.3389504465330435 
-0.05609664061005978 
-0.1477200215412878 
0.5101817926123535 
-0.01899521462076573 
0.1101813345875219 
0.2519254901246684 
0.947195549155569 
-0.3140396431576262 
-0.02310977773758897 
0.0477341592097513 
0.3087136382483958 
-0.284769551299344 
0.456839327644989 
-0.3583417833396783 
0.4884131578628345 
-0.09454740577423072 
0.1698005130772078 
-0.3234991334685681 
-0.3905834619753346 
-0.1555885143695559 
0.4285867844761641 
-0.5133834894985019 
0.120737028777759 
0.08522164519029539 
-0.6336590453058534 
0.3681988011249839 
0.1061171408998782 
0.3786554909203385 
0.05341586534898929 
-0.0319218634801721 
-0.1614726566913889 
0.1103429073474947 
-0.05824952673718363 
0.2360033498511381 
0.09698516769993409 
-0.203637622505717 
-0.1229521159800447 
0.01930400785732273 
0.4049921047333336 
-0.3297668730726218 
0.04907065449512504 
0.2260884735229054 
0.3013782791818158 
0.3171485738637089 
-0.2932612582924228 
0.2744991436301527 
0.02411099283661039 
-0.2852646782464057 
-0.1683214537109228 
0.0006717712759475966 
-0.09295127413201511 
-0.1557770347810785 
0.151843572726516 
-0.1221169891571281 
0.540106702539493 
0.4482909656298308 
-0.4426486265629263 
0.02562733776640763 
-0.4525465476968213 
-0.2233240474236469 
0.04795141229970421 
-0.307204892552537 
-0.00832120465142034 
0.1706236975972113 
-0.04235504021073291 
0.0329538193914025 
0.7180849171626306 
0.1491331685404743 
-0.1355948473291626 
-0.09933853229413379 
-0.2252243032149147 
0.4339319302776188 
0.7907774231434428 
-0.2802022458842443 
0.2085027200479684 
0.3903637348360057 
-0.1701680690144436 
-0.07138397825108028 
-0.1809970541669664 
-0.4265081009112463 
0.488622824370971 
0.4680360780198616 
-0.3834702425763057 
-0.0881457018172687 
-0.09582590305271221 
-0.01920341618638628 
0.0009695202463464726 
-0.1304678717049371 
0.168605565386861 
0.06004703448145223 
0.1390209506574297 
-0.1121341829891556 
0.03105205087567032 
-0.4954124690725137 
-0.1861436799671644 
0.1083368652058611 
0.09976922132424683 
0.1923911590527966 
0.637225036807794 
0.05963130892586434 
-0.4302946986684396 
-0.09212221019882588 
0.2567842758617318 
-0.2358526225044367 
0.4489824094521933 
0.5447771142008648 
0.2849964551428512 
0.1439817787502618 
-0.1604392141825946 
0.2034813820823031 
-0.03172650537419477 
-0.003906420369978499 
0.4418729995270072 
-0.267478036350058 
-0.2006802478826309 
-0.2582869284796403 
0.201157277889072 
0.08435562952533396 
0.237472854714171 
0.4669566078312215 
-0.06039098456340428 
-0.06816235594209429 
0.2240871733919013 
-0.03696344458987046 
0.2388307290166876 
-0.06799618490608431 
-0.284969404319117 
0.1491586268285776 
-0.5316883867447689 
-0.2846505956795749 
-0.08905793025412594 
0.002752523352156853 
-0.06254204940847033 
0.06888697420237222 
0.08602911854285712 
-0.3478476024223985 
0.8100871810264566 
0.6986578609368555 
-0.2395407148322408 
-0.1592898969677289 
0.2274024363401027 
-0.158743810006038 
-0.1025627704849878 
0.01334240866505501 
-0.5396924318493093 
-0.2880812278949763 
0.3810737840878318 
-0.2806088546893113 
-0.06019656531437868 
0.02612389437736777 
-0.2565410631333692 
0.1009729310483152 
0.1378394548815167 
-0.2414133753632523 
0.007194693256924233 
0.4302284195735008 
0.02331428333694643 
0.2030102266264112 
-0.3985156534011025 
-0.004130780524512235 
0.3374356346464269 
0.1996566279336949 
-0.1144797269388802 
-0.1979601847420876 
0.02367361806745991 
0.03068653747077395 
0.475769057545364 
0.01610308415796783 
0.288450773478706 
0.3608011417265649 
-0.4024001249883328 
0.2828079074155657 
-0.2211545956217474 
0.03664066448319906 
0.1517322086423293 
-0.2974090958210999 
0.4757239187548909 
0.1323007149732118 
-0.1218505066771698 
-0.05009829325430885 
-0.2277001953655669 
-0.3144368733873303 
-0.4598759374824229 
0.0787792494788616 
-0.5615019855290073 
0.4681238035118217 
-0.2956666995271574 
-0.09243386054077053 
-0.7663744648769248 
-0.08054407210077177 
0.2414106016470904 
0.07898081184596519 
0.28109627601039 
0.1002575428296307 
-0.05683981999663194 
-0.1837343182371713 
0.6599277420889853 
-0.09319071961206753 
0.04757535374510663 
0.1706608135395283 
-0.1250905141357817 
-0.4751456493701377 
-0.2009902738411146 
-0.1454264712640528 
-0.02550598624551847 
0.02886090663719956 
-0.2699348755076717 
0.167353959858428 
-0.2815450814358521 
0.3771778272607351 
-0.1417378568570505 
0.2563337010288464 
0.4457195917454817 
0.2768194471885669 
0.07621063434937637 
0.1349920757506048 
-0.07166656421068214 
-0.04730705742990526 
0.05914980591268886 
0.1765335838044752 
0.07570396648667586 
0.2504405120985425 
-0.07088053724313687 
0.04590050541194991 
0.2789050065768659 
-0.3984612462625202 
0.1157559846619565 
-0.4038120587457897 
-0.1334684294558058 
0.1940998892543115 
0.03281499320680815 
-0.001690017524030607 
0.1664600839210398 
-0.540977562527566 
-0.3985326046922826 
0.2868074498765034 
0.07958419411588943 
-0.2924902146029306 
-0.06997202606828286 
-0.1514471669310336 
-0.003426077107997937 
0.2556230494084726 
0.01461798421202699 
0.1556671179177273 
0.07130619237091282 
0.6769161014504532 
-0.08065907546637603 
-0.01516559628293946 
0.3445293537986583 
0.07841879783600908 
-0.261202932925805 
0.5186763693605725 
-0.1686298353268659 
0.09521561566200461 
0.05360717285656336 
0.5021348972491285 
-0.008576670272639246 
0.1902495588886702 
0.3706601791075846 
-0.0841747061746306 
0.2919943652196735 
0.005741572825112866 
-0.3094501775594524 
0.2650740168044204 
0.2529221725579021 
0.05557572854277432 
-0.2469509117766415 
0.1026088757857047 
0.2249237653151846 
0.2792241914273266 
-0.416080435585133 
0.2082907221030132 
0.09455977983348313 
0.3957882604372422 
0.07406939740069526 
-0.2626991906067357 
-0.09391527264073231 
-0.03423792571261525 
0.002948515766974406 
0.1105275873025823 
0.3769491549915449 
0.4000637845435728 
0.2036537096598687 
0.4209519465329301 
-0.04102477882812779 
0.2908513179751835 
0.05673299791414937 
-0.2014624152319519 
-0.2313195945479125 
-0.1725376000733378 
0.3882191302283335 
-0.3116205615581154 
0.4706768794849078 
0.08854989880083061 
0.2026125055977934 
0.1581492799361071 
0.08337270778407602 
0.01573151676708341 
-0.1756679365644689 
-0.0465545845442748 
-0.09645261550758119 
-0.1229229972671014 
0.165205327017092 
-0.6525909072558804 
0.1866501659462216 
-0.05752636276940434 
0.4592443926537792 
0.38543504752112 
0.3892528376730113 
-0.09963633924375874 
-0.005588172325602229 
0.2299694332709532 
0.01975847164656002 
-0.1716197112303358 
-0.1775753537665492 
-0.1517766619676184 
0.5942191614783918 
0.08647901049878141 
0.3490889096315109 
0.7728546902287047 
-0.1737701395563497 
-0.3673073142359332 
0.07735980537318517 
-0.2704852540165249 
-0.4431613171667331 
0.05522970286002437 
-0.6040054506505777 
-0.5655878408767633 
0.1622380476005251 
-0.1190562549418044 
-0.1376475162934738 
-0.02405085675823599 
0.0007230659850056989 
0.3575508375711538 
0.2893128432616679 
0.380464650149076 
-0.1188649970488594 
0.2230614511066809 
0.319109143457961 
0.3140128659679251 
-0.3787635981009196 
-0.1258636339280381 
0.01648097964079818 
0.08061362277637917 
0.2664614755581648 
-0.4624225326008965 
0.2289942696673914 
-0.4171971189660758 
-0.1505494179537897 
0.4411813116825993 
0.2244536556440636 
-0.2559411215044411 
0.3231897522444621 
0.3782730498631352 
-0.110309858504218 
0.3628515096049526 
-0.01210857631204505 
0.3554564533774995 
-0.1753704327751229 
-0.6424393289781163 
0.4197724522163014 
-0.08799517648992451 
0.4798924706483453 
-0.3836627342832789 
-0.358381762022289 
-0.1788874617705607 
0.05417081830821251 
0.3827785075525581 
0.1711732577053365 
0.09734476153236403 
-0.605262443967435 
-0.2475371886133039 
-0.0356555552764743 
0.2097673073891225 
-0.08850605644444615 
0.08222105831870162 
0.3322094293867446 
0.3139368825740082 
0.08117001470579854 
-0.2935046582971918 
0.3201289756069448 
-0.3238898975062614 
0.1598607516122318 
0.04486234503492951 
-0.2425784048848314 
-0.5965593495629967 
0.1165713198354455 
0.1535209249906647 
-0.08133543129223707 
-0.2146584745901446 
0.2824337388183451 
-0.2307805861516287 
0.2544738200210421 
-0.218148616589557 
-0.3551127293685024 
-0.4322634082582338 
-0.6579074405507349 
-0.3575554468716798 
0.2649565887639712 
-0.1541955594771801 
-0.5618460852685085 
0.03414964215825231 
-0.3697487334030478 
0.3511575507308174 
-0.2659154889906381 
-0.2296011377429315 
0.09890924416710369 
-0.1447801491203675 
0.07686356643281592 
-0.2301453084662387 
-0.1007285475123741 
-0.06307207975779021 
-0.002237552435139726 
0.150860040125506 
0.619568178372843 
-0.04820547524806494 
0.1069315592540719 
0.4326179496894738 
-0.5355776620803132 
-0.1853183896887424 
-0.09324335340654277 
0.09449196483579342 
0.4057188262150722 
0.7997575210214842 
-0.1349993535266527 
0.1841726938566773 
-0.3906757231705864 
0.07330040393171904 
0.09005918159059803 
0.4669216456302212 
0.2197730526700293 
-0.1884225210323783 
0.4432117433389247 
-0.1675673765487049 
-0.03807439845172046 
0.6570147933322243 
0.2274425876328523 
0.05128325010917884 
-0.2761927047339616 
-0.5200248451708401 
-0.2073722101292509 
0.1487746978302029 
-0.1592701784613234 
-0.0494910711353093 
0.173956555147394 
0.3118106459142002 
-0.1347152804462016 
0.03440546775575394 
0.1407009096019598 
0.02906414869052054 
0.3536730404319618 
0.1211858562730159 
-0.07385693485528504 
0.4098668749356718 
-0.1391681862532563 
-0.3696005253559819 
0.08206969378594665 
0.240502781140348 
-0.09266704316928161 
-0.4541280025800609 
-0.2213031414656691 
-0.1589129187872931 
-0.1376558901796922 
0.003609070236412387 
0.2378120607207617 
-0.2411107710755429 
-0.0523285581496753 
-0.2458695921333288 
0.1289569294168151 
-0.04827983057054804 
-0.07804328824644058 
-0.06888070934696554 
0.1057591775778848 
-0.1441315308691919 
-0.8713061221318934 
-0.2049312674475815 
-0.2493289404376272 
-0.2640823003387682 
0.6228734679002675 
0.4532879559907151 
0.4663081921953352 
0.4993628864935633 
0.5923799657671908 
-0.1642668164208904 
-0.1361425188946994 
0.4609136033415501 
-0.3026854762542134 
0.4504714473875117 
0.2829740092262264 
-0.1327262138777374 
-0.3798662863075688 
-0.01963046706497202 
0.3555696577864024 
0.1415245615907767 
0.5928678319929757 
-0.1604762795874891 
-0.09645805822769563 
0.1339365044200306 
-0.4686965689117534 
0.5146725780202599 
-0.124021355866103 
-0.043018809374139 
-0.3211635639865536 
0.4588547539859546 
0.5912923938789819 
-0.02697402036031332 
-0.1802889068890004 
-0.2598974007196586 
-0.06475874515987888 
-0.1175036281582556 
-0.3961901236506683 
0.1767122827764945 
0.1363922568865441 
0.1608662061976386 
0.1254370528948908 
0.2916537494458207 
0.1147256577651516 
0.02236641651357798 
-0.8744431233672861 
0.06108596073411087 
0.03497662086749485 
0.1831644495135403 
-0.05675925670355365 
-0.3414195136475228 
0.4210534423785038 
0.2070786209325797 
-0.03580331264103384 
-0.08425370188839434 
-0.07925124171722262 
0.4452238073260705 
-0.04740397286495458 
0.3084363809564245 
-0.1355402804062331 
-0.07956923103098434 
0.1996100334097005 
0.0258915475015802 
-0.3848069741213339 
0.1522650399597836 
0.2526854702544985 
-0.4769788121665438 
0.0145288061578119 
0.03363509094109933 
-0.1254581027684408 
0.0001222587872833105 
0.3057570738367517 
0.2070613208824912 
0.2934839194608323 
-0.0153114169260079 
0.01766822115133821 
-0.1531050585360801 
-0.04914235195895539 
-0.1637388297931335 
0.5470712885332033 
-0.1583788817345461 
0.4854592291479199 
0.2156445813429068 
0.0356508562742601 
0.6223166568439903 
-0.11638691097423 
-0.103726942509629 
-0.05579353158359505 
0.3766285769537109 
0.3006534218877871 
0.3782729299573165 
0.2617379398788924 
0.4142322737429214 
-0.538669590098429 
0.594406644164881 
-0.3916119551454199 
-0.340105093099755 
0.1023776401798851 
-0.1171617297254224 
-0.2511748065329246 
-0.1539517655020959 
0.04180672304170061 
0.2038131140496464 
0.5223754843183736 
0.3884102803575096 
-0.1911101112332048 
0.08544831374078225 
0.4579008091592093 
-0.4589447691496108 
-0.09828461551685745 
-0.1895737584135911 
0.1804405184166963 
0.1714170313199512 
0.0777976689317766 
-0.02064646839138064 
0.02907221664540346 
0.2893480907165201 
0.1023907214010584 
0.7306029847003774 
0.4084654994420817 
0.1057681618990582 
0.03265379554092514 
0.2513210389776973 
0.07139908643518841 
0.2792693949908442 
0.2683612624584957 
0.08478144940055295 
-0.2077608417816677 
-0.02277477833020211 
0.05477307470379519 
-0.1980679839528151 
0.1004855224264411 
-0.5082822060109596 
0.04251477149048427 
0.03339086072458428 
-0.03786220098332983 
-0.1608576967476852 
-0.02610191990363948 
0.4931433189944997 
0.002551647971183388 
0.09172827218651952 
-0.7998804464559939 
-0.207524460553822 
-0.1527765144423952 
0.2046588503917531 
0.1888061367418926 
-0.2236357905316533 
0.3534030013521988 
-0.159475910044654 
0.1276784573106714 
0.3114507088958139 
-0.09715917884311764 
-0.4075279937740184 
0.4320401595152167 
0.2090785934254492 
0.1640426802023393 
-0.03558474884162531 
-0.4550211959181684 
-0.4346653179428639 
0.3415948792283389 
0.1514272705981501 
0.3235188035370494 
-0.1473622118800292 
-0.34786163632755 
0.4373157568641078 
0.1331073140962802 
-0.338961555855859 
-0.03911683861468789 
-0.4527465535379089 
0.4284877411359162 
0.1409660293651242 
-0.09096475436300255 
-0.182456258659343 
0.1762327602745554 
0.6591591675502042 
0.03664322730311508 
-0.01026041850285761 
-0.1322823027393144 
0.1714016569120884 
-0.3232170571343633 
0.1499739006981095 
0.08736113934407283 
-0.1029874899212041 
-0.2254199090203919 
0.0163938571605049 
0.04099442138621215 
0.2957828145933349 
-0.4089809088335345 
0.1007344959437589 
0.03474986802848211 
0.04030920286228953 
0.3488798419205628 
0.03838341625055594 
0.4043882855011061 
0.2234992820771757 
-0.2073515482460947 
0.3894811550117189 
0.09099126011656251 
0.3507210573933383 
0.07350291277847056 
0.06889523131246086 
0.2656600526720394 
0.3971692493632433 
0.3687161709694116 
-0.1961230993323983 
-0.2841191282393482 
0.1221999437630679 
0.3245191047232699 
-0.2957518435388009 
-0.3343997970578149 
0.1231685590484908 
0.6014414180809276 
-0.1580355286500755 
-0.0625812353239748 
-0.076177434493091 
0.2584372304262765 
0.6661657319420593 
0.02036821898797709 
0.03890350274999172 
0.3466585686131689 
0.1283751759553458 
0.1937391329786159 
0.07438174226857837 
-0.06845704071596716 
0.3512253155323285 
0.1081163002757316 
0.294459321161633 
0.1272556257741968 
-0.2525761864865087 
0.06027614432781451 
-0.2734962763305094 
-0.1827146421864697 
-0.06027899145763632 
0.6102102741060641 
0.1560167897190501 
-0.2524222647176735 
0.0872437578290922 
-0.2394512344442458 
-0.07325385536685231 
0.07317839309220446 
0.1248589734665865 
0.2893739772419649 
-0.1741207188618493 
0.6386651004955167 
0.2291804425385172 
-0.1850420127458021 
-0.282866033998894 
0.5935860710077274 
0.464882373806815 
0.2597546730131818 
-0.09705364866479257 
0.2161486708580806 
-0.04303468735908977 
-0.06724203914580897 
-0.4259515655495026 
-0.2298784184732391 
-0.02350883889593049 
0.2805556034031187 
0.2688318248121244 
0.05658891014592418 
-0.2303169577603735 
-0.3208857794109689 
0.3186514318104785 
-0.04217486773006017 
0.07936204435847939 
-0.2360313187140144 
0.04077237870779107 
-0.5475047159436318 
-0.06029674978286495 
-0.2126809045014837 
-0.3202851851716405 
-0.1899942381882074 
0.0538680213954037 
-0.4292696359008098 
-0.1341469730763785 
0.2434437531530189 
-0.1370253199001866 
0.1138743344816238 
0.3576752608752435 
0.1440363658709186 
0.6978752717629636 
-0.5112831297418388 
-0.1733416460628876 
-0.2884626566625033 
0.1368592342868226 
0.1571616873454118 
-0.3748167131948407 
-0.1496906455361532 
0.409073752225896 
0.4046987911529481 
0.01133858806695699 
0.1206652833427595 
-0.2581716212306129 
0.06096569800495506 
0.2809044870165853 
-0.232916248541025 
-0.2062772893133756 
0.4578814678690581 
0.1730204195027143 
-0.1882092370637265 
-0.0916879266162501 
0.2576316584078517 
-0.05519226262872051 
-0.04474231956016706 
0.333745977876967 
0.001978212872576452 
-0.3012304817669799 
-0.08689207153543606 
0.271420683135621 
-0.1628455646372953 
-0.4410543053573631 
0.3408192739355619 
0.002911994711426373 
0.5850712065187643 
0.4094818191763902 
0.1731673322333606 
-0.04961485459547091 
0.03673201132482712 
-0.3010652623243469 
0.6817454266518579 
0.07671941945527665 
-0.1946511703260105 
0.2183877574015634 
0.004348473360258937 
0.2986086793089751 
-0.242240154790956 
0.002881089799373813 
0.6103428195245073 
0.1391152989179039 
-0.2861343096306982 
-0.08734090622531644 
-0.01444277165672225 
0.2213199273361234 
-0.2963690447709778 
0.1698339044795242 
0.1495581843017143 
0.2362975456294784 
0.1572383935923752 
-0.003645804575187615 
0.1510012205231807 
0.3109343235761877 
-0.1135603130689398 
0.1220250648641189 
0.1455471325760356 
-0.03217634901454058 
0.2036859216660379 
0.1738214684966665 
0.5463768352104521 
-0.05896747274206293 
-0.2847178559902461 
0.08184844980069107 
-0.1861669442397229 
-0.2341103836366887 
0.4546084556104098 
-0.04718569766845627 
-0.3068660432836549 
-0.5212916006891121 
-0.2445588325636714 
0.2274494164168145 
0.05368493544842012 
-0.0622944232725433 
-0.4137580054651259 
-0.3095100692248218 
-0.104497419774901 
-0.3406087025244173 
-0.6137860398184001 
0.1417674768493956 
-0.1448513340196542 
-0.2423952755978377 
-0.2232347952089261 
-0.09387513969125493 
0.3849228727901657 
0.03284890345339922 
-0.3129833919816624 
0.09409403666282835 
0.2898115967121509 
-0.2886367090092646 
0.2525267251732949 
-0.3511749498867967 
0.2419639337451716 
-0.4684370300585236 
-0.1611504039264493 
0.06290304003518212 
0.09097162046759362 
0.6215819386672136 
-0.04446854246302203 
0.4575655490782628 
-0.4233959696835001 
0.1843874851634967 
-0.2360859572074265 
0.1015492258583543 
0.3114316646454381 
-0.04748783193785401 
0.2559922035644666 
-0.1786907154052723 
0.05905003236513419 
-0.4591948022787046 
0.03609378566519307 
-0.2177088515899411 
-0.2172712471673342 
-0.1033301244685556 
-0.1594370508205893 
-0.6606585593993425 
-0.4316010344606182 
0.3566034637991932 
0.3481882274889579 
0.1609469609988851 
0.02154740847332137 
-0.5409190129861445 
-0.180540855671384 
0.1440040372495242 
0.6483276389835339 
0.3061488107221239 
-0.08491725417341525 
0.2371931456180532 
0.228057150313 
0.2698874894248642 
0.4377622392393437 
-0.003778412628223537 
-0.5682726962823296 
0.009391683136656542 
-0.09806382755468149 
0.8223243530837822 
0.2593653538461001 
0.05595706034022676 
0.0674334323626334 
0.3737836735482911 
0.273623769570491 
0.2233999600188396 
0.09879771050821805 
-0.2019368080104967 
-0.5998911682684734 
0.1679364159884138 
0.2466379968012005 
-0.3021879738650845 
-0.3225177141324115 
-0.2465732420666632 
-0.1696152716737835 
-0.2037801404515627 
0.53387082541771 
0.4773802100049283 
-0.2339335763861682 
-0.1397975963070234 
-0.1614804023809081 
0.1595435290356726 
0.3956270023675935 
-0.1352704457369428 
0.5132455570894534 
0.0256330906860872 
0.04889484091874026 
-0.08371658122062166 
0.4230550419027794 
0.3762028346081506 
0.4662859488551319 
-0.009964440202801949 
-0.08263776460639576 
0.2436368079311252 
-0.03968303532816873 
0.7013250103951148 
-0.05567556024830605 
0.3690913506770224 
0.4700973516145118 
0.4032370986480156 
0.2746187855904833 
-0.7048710113614749 
-0.3128109029769557 
0.1298045773069043 
0.430669363497117 
0.1313869786186396 
0.2061282362695645 
0.127221591838779 
0.06271864233528124 
-0.122025514647742 
-0.3517718711362886 
0.04384506198921254 
0.2753880749538645 
-0.561705399624268 
-0.2776916431811233 
0.05141723552600654 
0.325597610917274 
0.2156079697638471 
0.1315445732962496 
-0.03429665823917238 
0.05088444580857129 
-0.1962608670754528 
-0.03590152229136174 
0.07782317423198601 
0.08658354576838646 
0.1576031253956179 
-0.08910194008301839 
0.2562039971664097 
0.4954902965172024 
-0.3243290838643122 
-0.001986089431476151 
0.3831914739477796 
-0.2678532506063162 
0.345946906255174 
0.1559519716240817 
0.05448703349087153 
-0.2443033651399116 
-0.1349343852000768 
0.02434451686550111 
0.02980467592913463 
-0.2473179891798215 
0.1059849013440469 
0.4579354794801404 
0.1849419071731685 
0.419170703113637 
0.001707198410240068 
0.2628371894326565 
0.02394846683269117 
0.2230252011519441 
-0.03466208161389892 
0.1146492636408158 
0.2178129307115486 
-0.3153086585814762 
0.1074888211993342 
0.003334636815501875 
0.1618641496412451 
-0.2743813882886487 
-0.3903945776986907 
0.1348751045557117 
-0.3045395803889598 
-0.4813398943508045 
-0.02384401769529857 
0.4717876048454579 
0.09850747293073565 
-0.3513132004800244 
0.440119471534408 
0.4294304910108492 
0.3630003636350498 
-0.1307696228492219 
-0.001711037419403946 
0.0650875137589019 
0.1350144330551515 
-0.07207844217566806 
-0.09976828725583241 
0.1345069216147868 
0.4750664477508182 
-0.3216911044967752 
-0.1096701858388555 
0.09418951400922478 
-0.2085717454267913 
-0.2792369585068973 
0.1103063132707115 
0.2915132682161109 
0.03712846106450739 
-0.2894686662170123 
0.5923987948686491 
-0.2745422224541967 
0.03719033783954831 
-0.1490560576079737 
-0.1376659536475383 
0.5641827728773797 
-0.1967302779430625 
-0.1994628799246435 
0.5481959164271664 
0.196056532333319 
0.528353799244435 
0.1455037198071816 
0.3687210231458312 
-0.06526246075783168 
0.2433970673459352 
-0.1140302910703098 
-0.09761164482549788 
-0.06615242204800248 
0.3192197721597107 
0.2225123478934625 
-0.2726965196093319 
0.225081410357941 
-0.08385635323053695 
-0.1435117380564999 
-0.0135469066288153 
-0.2265645007320256 
-0.1688101464389197 
0.2441535077221738 
-0.08555276666056465 
-0.3616929537142599 
-0.6336016035351986 
-0.07657121821172878 
0.3520121016058707 
0.1420722632792206 
-0.5960149013815412 
-0.0666169315489784 
-0.4948599042764581 
0.3744677190335404 
-0.1160686766639523 
0.04211719617878151 
-0.1132548385066765 
0.1845505247743973 
0.4709382316235957 
-0.1476742226671347 
-0.2161756018246744 
-0.1470074732454329 
0.2599194091467372 
0.3278907009880942 
0.3235330297383213 
0.3490063704344191 
0.01935440852609182 
0.02205150201280121 
0.2879555640243218 
-0.2617775486158364 
0.3008008026846242 
0.2359608497494199 
0.4222109139910113 
0.03900783350525431 
-0.1121018475365998 
-0.4599870638503081 
-0.06022643721358705 
-0.29767696421966 
0.01309124439600051 
-0.4129365186105967 
0.3198492404565487 
-0.1045125056502913 
-0.1968809786966473 
0.2519625625781003 
0.6541776436591585 
0.04030450915910295 
-0.3755915367463821 
0.8456898780439095 
0.1604480037321352 
0.4226289960737056 
-0.1833087599601135 
0.0875462993768855 
-0.008900178261008647 
0.5103419861914184 
-0.04832492676078332 
0.05766028709241331 
-0.1193009063359841 
0.4800642472561816 
-0.03667823631771362 
-0.3633555510531346 
0.01706213113404586 
0.7154118514375379 
0.006991179564804325 
0.2753571525228499 
-0.3227528045390268 
-0.1220581875257569 
0.2554837650694623 
-0.004211365192594626 
0.1404342969842935 
-0.04432522428050174 
0.09224799917250223 
0.006395632080410668 
0.2102779172407384 
0.05655457880633765 
-0.1525197430930419 
-0.03045786464051329 
-0.1570010484022578 
0.1803304927285555 
0.1110200233074244 
0.2329618158503853 
0.331540939285662 
-0.001907872977235307 
-0.6334614144048694 
-0.391259327266122 
-0.0275895531451627 
-0.2932056772442995 
-0.1365922995910043 
0.4617550905306996 
0.61694149753398 
-0.121609879437814 
-0.2715520041698158 
0.345692336819956 
-0.3401953620345736 
0.2584178575584405 
-0.5179108388421404 
-0.2433875769578908 
0.1476087581757457 
0.8524414356275719 
0.1731630723127877 
-0.08457362371182496 
-0.1260877610027167 
0.01467328670790666 
0.6613948289575798 
-0.3293942582346624 
0.06860043180020577 
-0.1946187688062866 
-0.6704235597457722 
-0.4791347926944709 
-0.3805347205637449 
0.2637548754083527 
0.2597115719466033 
0.07845474400639903 
-0.3339127341812833 
-0.181484997868907 
0.2642545746432749 
-0.0637647056170397 
-0.05614101179595379 
-0.1974524493946825 
-0.3277466414372522 
-0.1251865532602987 
0.5448273592293181 
0.1295536310899249 
0.02412978819274465 
-0.06072491168196845 
-0.3226429664946909 
0.434896250352779 
-0.07454581585235057 
-0.2669362681493943 
-0.1229273081651265 
0.3541938441199435 
0.6842335418896594 
0.672153739173501 
0.0107936100630783 
0.115093240930203 
-0.04338943162961968 
0.02627941676372812 
0.3032078864260088 
0.1712809928543191 
-0.2935126668165068 
-0.451574684065968 
0.03357743433349249 
0.02269895844607757 
-0.4785518693050775 
0.1555701540091962 
-0.138232968342106 
-0.2287282647677107 
0.1919383113570626 
-0.354833839639585 
-0.01875253278098509 
-0.01199658343848252 
-0.2230696152107259 
-0.4213610053018077 
-0.005331177781037404 
0.4347229840623059 
0.4157224424517082 
0.3167294325507648 
0.4664407113321353 
-0.08396978856695475 
-0.4472305921447297 
0.2148611707385474 
0.3879441373865654 
0.0634356591143185 
-0.5080867238660004 
-0.1198254426886417 
-0.5059703874909892 
-0.4633901887078644 
0.2583314986607074 
0.3734742323857726 
0.36068167028377 
0.01709210521248231 
-0.2592877766940139 
0.2485267843111016 
0.4287282134012798 
-0.02932475283190886 
0.1881490121891309 
-0.05054727132826444 
0.130727767401257 
0.8186205382361882 
0.1132149452556447 
-0.01604593049902566 
0.5097297412673827 
-0.3687936170981392 
-0.08218017335831357 
-0.04493722918372392 
-0.03211924735860829 
0.6018573860219808 
0.6549473022085598 
-0.2655647644454884 
0.3292540701624503 
0.1220037178667616 
0.6454340109982468 
0.2957597415733121 
-0.2247727311062655 
-0.3097727913016379 
0.2847242506112698 
-0.09272531816620248 
-0.1370048653178605 
0.08073793369163522 
-0.2604627705240848 
-0.06329429080552737 
0.102528475629 
0.1437537976010974 
0.204250963196286 
-0.2575795563589375 
-0.007917969803424818 
-0.1089925650585987 
0.1296504792954305 
0.08442560021252564 
-0.1546169885541691 
-0.5105756699213182 
0.04265880629504595 
-0.2994757232303082 
0.2086111252964513 
-0.05253807162973834 
0.2165746253481187 
0.2368729944749444 
0.1645610367355456 
0.1145533372832124 
0.2532463667771139 
-0.09213804347399997 
0.3080716308980687 
0.1790062060052203 
0.005960939595096919 
0.05498277662987529 
0.4716074870412039 
0.05639999836792611 
0.2399681752710832 
0.01263786524013038 
0.07368255786560042 
-0.1387763014112568 
-0.5024941852181252 
0.4123647757846869 
-0.1463604492075243 
0.1242133702248562 
0.06650613391553382 
0.1923727205336826 
-0.4998128928606521 
-0.06810267635606067 
0.1898252116257512 
-0.4122971158423746 
-0.06137125090409923 
-0.4217173962909227 
-0.04360419998552376 
0.02340884192331599 
-0.08160132864175552 
-0.1068643221308702 
-0.3131855350291889 
-0.3470299425226186 
0.08202290722260207 
-0.4389634401617594 
-0.4423711678631132 
0.04507108845377042 
0.005476788181341261 
0.2834212729018451 
0.1198441160888724 
0.3159085342377279 
-0.1832241860534159 
0.1302119080980532 
-0.3874037608291138 
0.5530843709800567 
0.1758335020254767 
-0.146149677439431 
0.2564525283703116 
-0.2958574602405255 
0.1586649776503872 
0.06907713867693613 
-0.5095868318907459 
0.1798961725940334 
0.01956349497973943 
0.02106110987229848 
0.2573236536672606 
0.4654415436141628 
0.2587754231446344 
-0.2700631249439593 
0.02445608323160425 
0.1358408710963177 
0.05618693736556532 
-0.435033737259396 
-0.2685610076616408 
-0.0004756071628041522 
0.168347805481691 
0.1660854185102682 
0.09225857239180096 
-0.1775338101713697 
0.0757616683482906 
0.07504517003277705 
-0.02172555716233384 
-0.1301629756221115 
0.1189275160015474 
-0.3298156083106668 
-0.625683725357756 
0.3808091292667181 
0.4077438452279927 
-0.2120950971799655 
-0.4707953771853228 
-0.1663540622536962 
-0.1597132857204321 
-0.2132732194883245 
0.642962490649616 
0.04570158952162694 
-0.08884053347841205 
0.1846997796816805 
-0.2301889230826973 
0.4033663441124277 
0.08229749738071344 
0.1651389115955677 
-0.1571944125705822 
0.3192968686950211 
-0.5200674348739469 
0.6719830536333133 
0.1198247618101523 
-0.3873668581184861 
-0.2369194399311135 
0.06935999301779931 
-0.02687813321182861 
0.3233050474878517 
-0.2613578895617863 
-0.005393141623145979 
0.4138124206165814 
-0.3948331628202653 
0.4203758552037091 
-0.6535632826411556 
0.2227318167687079 
0.1139175452164872 
0.01421273438691621 
-0.00835231452562416 
-0.01496177920455779 
0.485833313568289 
0.205504924036315 
-0.8349017624726344 
0.5206665207768494 
-0.04481857489885981 
-0.3030102261130346 
-0.0495419081307163 
0.1686544040787551 
0.1818516418472396 
0.3278819789073334 
-0.1523968268199993 
-0.02308415353232762 
-0.08055958487075876 
-0.01950611372348455 
-0.2926798933863449 
0.6456688870390873 
-0.2448791476883525 
-0.1697015312161497 
-0.313770474068412 
0.2027507752736855 
0.704108990212187 
0.2251297954175223 
-0.3531214092441249 
0.2985060592840318 
-0.3845976299436805 
0.2132420971721323 
0.2563703489924691 
-0.863415465544746 
0.2879323811235046 
0.1536645647265861 
0.07263143130401932 
-0.382882584659106 
0.1930437700761518 
0.3886241432738544 
0.6501596806550704 
0.3085839188166254 
-0.2879745678231133 
-0.05106345123796261 
0.06696252815450586 
-0.006541395277090603 
0.5927759455407 
0.1158236847445755 
-0.08202688287887776 
-0.3412508030674362 
-0.4168951323357044 
0.5333175727351051 
-0.02275263345936106 
-0.3196518956304287 
-0.04265462746673494 
0.04586556776096363 
0.3149267982368313 
-0.1944606273340897 
-0.1346507022254239 
0.08367097293729528 
0.4253374909379158 
0.3573015094121537 
0.01770549789668712 
-0.5193178610504761 
0.2368445933499843 
0.07295604256803241 
-0.07050373613065709 
0.2327981869867865 
0.2473106226706687 
0.3409015282381847 
0.2805774616495553 
-0.4007509029505761 
-0.2866265742998792 
0.1008310447055067 
0.0307599359122557 
-0.1648903632348632 
-0.243933383227933 
-0.3605239218048111 
0.005914324869798805 
0.1188480945812097 
-0.08894179928559813 
-0.01767946543373119 
0.03474485001996065 
-0.2855233270562403 
0.03978851757253078 
-0.09189909242636073 
0.02306257607684892 
-0.405086972403325 
-0.2272585314225304 
0.06960647724968036 
-0.1617013582285707 
-0.2975723017529515 
-0.08867164756680357 
-0.5219545581999031 
0.2435825129044366 
-0.007074055394114227 
-0.2491090559547289 
0.2315777891467664 
-0.2693008518820345 
-0.2057093626301666 
0.01940929820363121 
0.4553893866854884 
-0.08384245074049523 
-0.2028131316520945 
-0.1138295396383124 
-0.2012453390352713 
0.3861207851234547 
0.667405434591402 
0.2019256461535958 
-0.1717551222100419 
-0.202689466129065 
0.2532613161759811 
0.6889520937435558 
0.361908429968641 
-0.002044058636933698 
-0.1395310714402379 
0.1580364665868487 
0.3462514459317038 
-0.3148824075033632 
0.09079660857883574 
-0.142994780269264 
0.08285501387053507 
0.4906267705118502 
-0.1775635086693821 
-0.0870328973925749 
0.4743110801209832 
0.1149087573146028 
0.3211873722114623 
-0.1632325478922771 
-0.07426965218283618 
0.1692087541132737 
0.3728662091486288 
0.05111540240710066 
0.1592902626129628 
-0.4737053333330203 
0.2156531534742836 
0.2038046424568125 
-0.2908039592808957 
0.1914033974539325 
-0.2445565517876355 
-0.01848238316054954 
0.09234965349722848 
-0.2325585590487055 
0.2320596662519638 
0.1210954623382312 
0.102629200752575 
0.03448303009794194 
-0.06562486285952257 
-0.2450148813270436 
0.06260134132050811 
-0.362348988048088 
0.1276224041422862 
0.7980822108825305 
-0.3798701362386839 
0.07255361593566896 
-0.1310037779738801 
0.5058714080634351 
0.4694369482383314 
0.4018734965362177 
-0.1451759935756079 
0.2554906634360055 
-0.4225284814505447 
-0.07083644833026526 
-0.2899941399232645 
-0.1838734365509205 
0.1079793037375873 
-0.2483563101940667 
-0.239683218991121 
-0.1370413117937514 
0.4887774203533277 
0.01816446596953144 
-0.418288937029041 
-0.386469354940952 
-0.1708704666076699 
-0.09775135829335721 
0.6019992653065511 
0.2247870260211176 
0.3174856340277788 
-0.2166024647773903 
0.190248220918553 
0.199126947225309 
0.01082672872730871 
0.3970188934668922 
-0.1804788499912141 
0.1730272213899477 
-0.2274047661160962 
0.2415899954528233 
-0.08834256962201066 
0.4408461578090272 
-0.03227517865263917 
0.1623697180346458 
-0.1300075391900491 
0.1446794527396266 
-0.3239487626542237 
0.04364192555986347 
-0.05599530900047696 
-0.1593593451670053 
0.1856436492592953 
0.1612354627451897 
-0.2997231506909089 
-0.1215888660631418 
-0.2167375984998456 
0.7602665547311887 
-0.2545264446967624 
0.1047561867662333 
0.3795934641998322 
-0.2046771148201141 
-0.1619597790162736 
0.2394378564251898 
-0.03621884138519008 
-0.1677072431139531 
0.453564343965015 
0.2975373335822759 
-0.06510385918960242 
-0.1289940918465223 
0.04306922936550239 
-0.04406325569707286 
-0.450310121741363 
-0.198095714026313 
0.1682847055220889 
0.5832865836677995 
0.03626254280878687 
-0.5369108078680595 
0.2647630637856511 
0.1411773971325332 
0.2586145692639437 
0.3612744699599986 
-0.03299268299693168 
0.4656499401790265 
0.175765106095622 
0.1089704947837155 
-0.3309758217718755 
0.2700681635422388 
-0.06533486915088449 
0.2829577568643051 
0.211317389717709 
0.03454380646377363 
0.531926901974856 
0.01054845098727097 
0.09624552413575883 
0.1243188575572283 
-0.3495374433640462 
-0.1784607589459963 
-0.0003914254151287297 
-0.1849725490528613 
-0.05877577439879694 
-0.1347253307881559 
-0.2666350380243298 
0.3024948532183023 
-0.03349271260604157 
-0.06032701414366583 
-0.3026257375330139 
-0.2225052102957163 
0.1282743994143075 
0.1346465098753302 
-0.07711660651685465 
-0.04471895207359079 
-0.3482681296230117 
0.119836405518424 
0.526424727324278 
-0.2985115939687605 
0.1033153145728955 
-0.06642769973422706 
-0.02453970682699097 
-0.3587911826365694 
-0.07065060492384372 
-0.2180498482151389 
-0.2021799285242484 
0.001702470983267023 
0.4838328149835989 
-0.1356746729346184 
-0.01937650441173604 
-0.04550949227790457 
-0.1108022994772682 
-0.3519575899151303 
0.3916429174569239 
0.05066295424090271 
0.1031559045940812 
-0.1390927874377926 
0.7735492410155871 
-0.1655469989828618 
-0.05378396607191972 
0.2357827187458071 
0.2595158624465406 
0.1744210898469062 
-0.03615620770031099 
-0.1908807291465891 
0.1516946061788329 
0.653426550310345 
-0.06031664830400606 
-0.09932617287538027 
-0.003005082998340868 
0.08102851702312897 
0.0623257434848832 
0.4360990453594045 
-0.07260618725412057 
-0.2215299869472423 
0.1393081662384067 
0.3496973535886551 
-0.2870369022346667 
-0.05340676804737517 
0.3050501522471467 
-0.1549181775395994 
0.06055449572174747 
0.2186212821473279 
0.1219810564248632 
-0.04722044379022759 
0.3992834860590561 
-0.04393271356662706 
-0.03283230870480185 
-0.7353052784672767 
-0.07203983259615791 
-0.004682776677608858 
0.1213072495475169 
0.6626843596546813 
-0.3893376658397843 
0.02852389971371728 
-0.2027658784694889 
-0.1398060505018364 
0.04759918201328305 
0.1346243100506954 
-0.02716458945889971 
0.3070762213879814 
0.1945149930087398 
0.08937258450161034 
-0.3418452288231798 
0.1546221967973644 
-0.4549605843957338 
-0.5154327901167767 
0.1982486324970254 
-0.3306698554469763 
-0.4328418011072581 
-0.08179862810855879 
-0.07255606691604619 
0.06222602756137964 
-0.02310792347590098 
-0.1542627342193097 
-0.2230535973139514 
0.5506397095185656 
0.2178652390521038 
-0.1660808635349814 
-0.2392369873154633 
0.0643604991788969 
0.5667864253477866 
-0.1270264094128147 
0.01359687382060145 
0.1521165939779236 
0.1093290267188692 
0.2644130079607969 
-0.1678450669009365 
0.266050777661234 
0.6550950531074395 
0.04285145547015026 
0.09452873589066603 
-0.09529006302421636 
1.102188117597425 
0.2843556912783562 
0.3274486686884636 
-0.4803149150087874 
0.03075594563690203 
0.02949201409528927 
-0.3454019678936366 
0.2845691838992831 
0.1556823401943341 
0.282941068885788 
-0.3270931486182122 
-0.3022491690504591 
-0.1922397489124677 
0.2686772715365994 
0.4946880803148631 
0.169987591186742 
0.07353634295026623 
-0.2527786686084902 
0.368583111195889 
-0.2737204081630081 
0.3637307703085353 
-0.3995131788521931 
-0.1132640166990572 
-0.0775932038974968 
-0.2943841042484856 
0.1308718587502138 
0.3410579871324143 
-0.2534186269142038 
0.6115395233947406 
0.05652488230297244 
0.3507933036780555 
0.1502221803269966 
-0.08283356545849331 
0.02073199065086441 
0.1025007386107707 
0.1476006532078952 
0.2374732991540882 
0.1010505113526137 
-0.2266838452141978 
-0.2730118988780627 
-0.09081044466085338 
0.3044892498677379 
-0.1007455853215861 
-0.4138517452898549 
0.09518227232112016 
-0.6407003209649559 
-0.4735286431709486 
-0.5158501009242075 
-0.3536612617713157 
-0.06285365030530188 
0.2925949248779057 
-0.1017499631722076 
0.2655605303108246 
0.09055360748062676 
-0.2197230294714948 
-0.1008992378977946 
-0.3339626557235547 
-0.1129216614965811 
0.3573381350029443 
0.1311369963674817 
0.2758989026371925 
-0.2230141084649743 
0.2630325127931512 
0.180548511055143 
-0.07170795189500877 
0.1709509310226357 
-0.05189270416510174 
-0.08230183731970317 
-0.2689267001597546 
0.02159526059015775 
-0.757536028423689 
-0.3018102194609841 
-0.002329860100608872 
-0.1334804077384062 
0.03680201665424473 
0.03166772313320938 
0.1290784735394473 
-0.1084514590451783 
0.3096019889138628 
-0.2611667749236955 
0.1011835898620119 
0.2247774428209198 
-0.003118961654775662 
-0.2905702335741609 
0.5029348108642711 
0.190676623924462 
0.2362578067511601 
-0.1200782384775504 
-0.4614063087361597 
-0.01165323004250568 
0.09049629288604436 
-0.3037050625771159 
0.2176791362236095 
0.2204895656764177 
0.09176933864021408 
-0.2795006797884329 
-0.1592729554548604 
-0.0844658630292288 
0.06228234522221888 
-0.3234171628016021 
0.177971831258974 
-0.008978052516647767 
0.2117738833125589 
0.2085493140521932 
-0.125457687138327 
0.1464455000047105 
-0.06869621181667572 
-0.01351479693648826 
0.0757303950503815 
0.01483291302014231 
0.1197459917792106 
-0.04666846392689475 
0.2401286527746225 
-0.05635990914970709 
-0.2809321603949977 
-0.1202389641392364 
0.06135401232570948 
-0.190512366256193 
0.3308609022608795 
-0.05157097904175829 
-0.202244214795822 
0.09139135158812745 
0.1024649529158372 
0.6659060183504317 
-0.06427766545493845 
0.1123945923968636 
0.003198655351967332 
0.4493955620918352 
-0.01974703593364164 
-0.07920166301492089 
0.4068335646165369 
0.03883287682201918 
0.4096418539855671 
0.2031194141112244 
0.4117112818288791 
0.1896290504663175 
-0.3614382341311856 
0.4570866391273148 
0.3812691811502741 
-0.001583639303721848 
0.5250171828090555 
0.3413092475895484 
0.3580008754724552 
-0.5544584745633922 
-0.6815078781805417 
0.01880779484432688 
0.4181169137343181 
-0.009141028171102584 
-0.458064957654684 
-0.05136913013192516 
0.0348379038811983 
-0.3866148508126853 
0.2147900122959769 
0.5104310677707543 
-0.3534251567885574 
0.4518056976758389 
-0.3150416189137175 
0.05255855327514278 
-0.1550074512149769 
0.2829106949829437 
-0.5888034175050927 
0.04655853369030861 
0.03711631229831022 
-0.08507328349212417 
-0.03691400652993587 
0.6447539428410917 
-0.0203781676831967 
-0.001548355526396983 
0.4405308378421771 
-0.3654729701806148 
-0.3764598273408682 
0.02557483711541823 
0.173207855896151 
0.2245428064769414 
0.168848761861486 
0.05751689495742895 
-0.3574317196693371 
0.2529585434531113 
0.7048180264387032 
0.210213297123382 
-0.0355113633900233 
-0.04080367342421494 
0.02892986903894923 
0.0415777831514561 
-0.01019273760013704 
-0.1584133720768031 
0.01167330830270139 
-0.2368690211236043 
-0.1804332731324237 
0.298604669491034 
-0.09519669389840932 
-0.1631933301198328 
0.01629220366064592 
-0.1004179439657473 
0.1417238832811663 
0.03502431195500096 
0.003428016972539894 
-0.1568546796813373 
-0.07141351804750099 
-0.008134339893867783 
-0.5907993032885003 
0.1874983861822027 
-0.458750063494538 
-0.09874612598936823 
-0.3664184167905959 
0.4385736411935927 
-0.06365370758941276 
-0.3551626084596735 
0.2776185184554593 
-0.7471307933807654 
-0.08214946927766595 
-0.3207461581715287 
-0.1346354173801069 
-0.04360400024351257 
-0.3531720558337217 
0.3378436247087591 
0.1198101892014864 
-0.06499753919597154 
0.6282510866131401 
0.3067725373833152 
0.2550945557621024 
0.1906594458401131 
-0.3629158571795552 
0.2683668122641468 
-0.02076531166648298 
-0.5023960142632462 
-0.05310882564484672 
0.4137386462700099 
-0.2044508383138826 
0.5748878106415255 
-0.09118823954779842 
0.01268787369537987 
0.1178952323829412 
0.04150509399471175 
-0.2010017626124773 
0.2220563092154373 
0.1604627534424202 
-0.2166535555237924 
-0.1054695129858461 
0.273026727043792 
-0.279221543134938 
0.113317959053576 
-0.1649571592080079 
0.02491076926624971 
0.4595619513592301 
-0.3843990714956605 
0.4880934111826563 
0.151361416560014 
0.1008486018855405 
0.568164897247689 
0.0902751377215258 
0.3210803820158305 
0.6224467879275129 
-0.03395236320011331 
-0.09684267769185385 
0.5542194718534619 
0.003165525992035587 
-0.2004268766773879 
-0.2003453897975565 
-0.0237591430791387 
-0.04543017523837448 
0.2727295164318437 
-0.331821377675492 
-0.1000466113602989 
-0.04035986991471389 
0.39813562575719 
0.06982413034800619 
0.1270679145540509 
0.304365673078968 
0.1469394289252896 
0.08525242713334962 
-0.1231441325206045 
-0.08307426727141339 
0.1531669926268025 
-0.004192719430592302 
0.1591300139145039 
-0.03802876396085542 
-0.09766669635948801 
-0.1325198384522896 
-0.334742768983758 
0.07641962038020528 
-0.07349314231985998 
0.0246672041717375 
0.1059634650797587 
0.8896128175407866 
0.4441692017616698 
-0.263867007787845 
0.2247364307091281 
-0.6722846452368704 
0.2754109908899275 
-0.5177001092624324 
0.3298004473122073 
-0.2613316489537442 
0.5312468039981799 
0.444651562635011 
-0.2151309298573408 
0.2200755487883123 
0.3085098039692942 
-0.1781665723948583 
0.09153197331441296 
0.0006797146717448934 
-0.708978624024347 
0.1828306313247194 
-0.236992268296295 
0.271099715425252 
0.490448522282684 
0.04889327302474394 
-0.1978433214206962 
0.1068403033727314 
-0.1305705829376532 
-0.502630115327565 
-0.1501267403728282 
-0.1557771960016889 
-0.3829136138492697 
0.1435290974614407 
-0.3093627594579881 
0.1349345255619312 
0.5818589501578136 
-0.5302648046407542 
-0.3006927600999286 
-0.002522259426048279 
-0.1045076997820418 
-0.1235818029038139 
0.290649967407604 
-0.1711054114143796 
-0.07080742391269491 
0.03124580669376918 
-0.1738952290577376 
-0.02424382925636873 
0.09271025925878912 
0.225797996362814 
-0.4166054092388585 
-0.4333820902488292 
0.1149123966541508 
-0.09390332466490228 
0.1507529396508587 
0.09526812742057596 
-0.3042743244990885 
0.3083011397229436 
-0.04270510841043121 
-0.105284578743622 
-0.2522318673739695 
0.4186735776395576 
0.1272122819820039 
0.06628871978725649 
-0.3492419720855822 
-0.303652907581388 
-0.02345031516381243 
0.03438946781323278 
-0.4858265789076129 
0.3593005593196844 
0.5692248863116355 
0.05634771634440838 
-0.02753957879170021 
-0.1550341895213589 
-0.187933089101808 
-0.03793658480962062 
0.3407754598666832 
0.5629365606296661 
0.4352822709521817 
-0.1650970473609205 
0.1105944121842835 
-0.007086157857906238 
-0.3050331339927347 
0.006341373692206902 
0.3477236132130728 
-0.004687638334265387 
0.1920779324216475 
-0.1830203095928152 
-0.04351793349061709 
-0.522796774220663 
-0.1271126223088404 
-0.02413955176848299 
-0.1220097434611866 
-0.36426492602491 
-0.09805705179743823 
0.1530438214928153 
0.2028221228117843 
0.8128087345706638 
0.2087490268237836 
0.04302298822691901 
-0.5147244218723106 
-0.1581663528763244 
0.7826779297890393 
0.1928644890366957 
0.4704312273976561 
0.05172049818041678 
-0.3045667697316658 
-0.4147521358848692 
-0.08618221145522763 
0.6202051545555722 
0.2518655224341508 
-0.2784843599214975 
0.02123784544561859 
-0.4566293173384597 
-0.1126739661410464 
-0.2045848323632598 
-0.4714698039668722 
-0.05022038225101257 
-0.2355956599588543 
-0.04249235483132487 
0.5458368794242262 
-0.4074347565840635 
-0.3077083986051309 
0.01154203825375674 
0.4088242672445983 
0.4235974961385225 
-0.09607271516405661 
-0.4795746678457262 
0.1518315039963395 
0.1484491469431038 
-0.1380247512601373 
-0.04545085234091598 
0.4454729000601232 
0.1393948087179267 
-0.1304348367981889 
-0.1450662506817431 
-0.07602032426301893 
0.5918442782229465 
0.2113158033770667 
0.1676197033427202 
0.2935155270059633 
0.06060230450253906 
-0.3241569581970146 
-0.2581930780968119 
-0.2716627376845381 
0.2718451318025505 
-0.1337280943866452 
-0.1210442200252717 
-0.2729233447453251 
0.06792491860237335 
0.167229283197007 
0.06421236414450558 
-0.2519647771526185 
-0.1803451111584879 
0.2173761082405525 
0.2688706521388853 
-0.1084842130862061 
-0.3084506925445671 
0.1071095840273449 
0.6680929602704839 
-0.4620388691883083 
0.2956007449134306 
-0.2938418031601602 
-0.3259065683584793 
0.09404752169885867 
-0.4327523672526454 
-0.07353093951250012 
-0.2642583707313152 
-0.002193266569039521 
0.5902446363654829 
-0.285456629863681 
0.088738130016977 
0.04246071177521377 
0.4479552975024261 
0.06276313607514242 
-0.5838002870452257 
-0.4411546513160219 
0.05774173143787176 
-0.05047417897073923 
0.2670211371242754 
0.0568731742624532 
-0.25447178558756 
-0.2103865772624946 
-0.0145021468051327 
-0.05151764774723516 
-0.1727171144909816 
-0.2741414638009924 
-0.4081607032486451 
-0.3544888175075595 
0.5268994847327914 
0.008475405396543834 
0.9874758903689951 
0.1076649627531198 
0.4872413476489145 
-0.2868142518687456 
0.2235337869561335 
0.08223347584586679 
-0.06523883398464038 
0.03824209839969978 
0.1299820951850318 
-0.0854334692956233 
0.2603214182282097 
0.2956664297729303 
0.2395034029621868 
-0.112838226327924 
0.1096058102725005 
0.0598130889456797 
-0.00522274107993666 
0.2782659820658199 
0.1141271565043423 
-0.0228765925684932 
-0.4150325517248653 
0.1006340657449258 
-0.2571431398044999 
0.3021561310174723 
0.07757142995561749 
0.1503316476109456 
0.05662304869377731 
-0.1673366661524322 
0.2378871166403755 
0.2545208255970348 
-0.239874530519664 
-0.2213014038036635 
-0.06148190880849065 
-0.2943872378186129 
0.001168910011367127 
-0.03323881492902762 
0.2506925914652969 
0.1236833764186882 
0.5192877871866567 
0.1167696834408126 
-0.5511518997647266 
-0.09712141635001524 
-0.09136744312639372 
0.08494616858672421 
0.2578087612214488 
-0.414549657481525 
0.318285771864644 
-0.4297133831116944 
-0.1047222541839946 
-0.3888173863337319 
0.07737677323363425 
0.3532280634962181 
0.1046615390297912 
0.03596320966786339 
-0.2505361637243355 
0.1255586777496742 
0.1013223189062225 
0.6488239222295488 
-0.301187435314674 
-0.6448972928563785 
0.2743018548999143 
0.09951860189053002 
0.005109796685656082 
-0.06809203566412438 
0.04846130057822675 
-0.04550911805698316 
0.1182679164336949 
0.5274965413932018 
-0.15362850679582 
-0.3263308225418182 
0.227669678275331 
-0.008698406287793326 
0.3829872051175333 
-0.07156269543884149 
0.290893372219482 
-0.2135217935655204 
-0.1702583805749695 
0.04230108877715515 
0.2086771667543896 
-0.0447421084269314 
0.08058103420422091 
0.3117528430563927 
0.428441604591972 
-0.6615112220644432 
0.1212120013884752 
-0.07807340585322135 
-0.3504059821058381 
0.2889207143086331 
-0.3011528360309472 
0.5562584617749278 
-0.01236661360363714 
-0.07854701873678231 
-0.3081063637011596 
-0.2151517580917119 
0.02620948031364753 
-0.3347173411465449 
0.4266484012904506 
-0.2294601510889278 
-0.1316303095317226 
-0.4540092224396577 
-0.2999391411370896 
0.2347480994809808 
-0.2360949067205775 
0.1826372863938992 
-0.1430348468851306 
0.08190603720408292 
-0.5894061380296519 
-0.3569030824844661 
0.01649793034674359 
-0.2103958232517346 
0.2693911542104856 
0.03047347666508401 
0.3984630962274567 
-0.01386875890402715 
-0.1434819100781437 
0.3154583161816534 
-0.1717621281155669 
-0.1891667831863672 
-0.4063266284893497 
0.3302947570794579 
-0.2301835102735947 
0.02506918338357055 
0.2963725741070984 
0.2545203041455677 
-0.04135791788683393 
0.01142003196505048 
0.2072197032268533 
-0.006122158476368854 
-0.1287949416950693 
0.4852381842000325 
0.1016427970668113 
0.08737380994202981 
0.4978851618861588 
-0.04329028091810834 
0.1047000291732944 
-0.2115150902824026 
0.2075689867733854 
0.8239025015741329 
0.2124870482751376 
-0.1253054352305777 
-0.3292394872200596 
-0.2580646760571421 
-0.03896311836790836 
-0.0444673352695556 
-0.3260554039627208 
-0.1800365301947208 
0.4072493269781126 
0.09163204972082514 
-0.2263898356479049 
-0.1300305713874947 
-0.5666903183315644 
-0.05282508688098851 
0.1434268542183 
0.461000632183463 
-0.1070363263810041 
-0.08147761150200204 
0.26492426346327 
0.03256712602933379 
-0.01965160004724669 
0.3559653196319955 
-0.1169995754651303 
0.2221860568971075 
0.0603395479972828 
-0.04837971938991487 
0.9287464628889771 
0.3589949912275573 
-0.06528995818552487 
-0.01464374461754378 
0.3292275447133374 
-0.1521737864844183 
0.4273817661998816 
0.1406261616975627 
-0.01441349252610666 
0.4186994594032531 
0.282546130391294 
0.6691071889847876 
-0.2735220903906105 
0.1477369236307788 
0.05380068606033928 
-0.194352579966089 
0.2661863311904567 
-0.3545336216206065 
-0.2178361217363861 
0.659000902687763 
-0.2841860023565213 
0.1801021785663536 
0.06644017818310928 
0.1419813706216976 
0.08285780122835737 
0.049301815462177 
-0.3605007950170064 
-0.03092142490404476 
-0.3011478549712073 
-0.1469867072707109 
-0.1782219075440099 
-0.1203397646371841 
-0.2590963043676062 
-0.02157376783404234 
0.002191710148186521 
0.07875491559467618 
-0.147171344155188 
0.5259418821233667 
0.4186546646824398 
-0.139154281398075 
0.4830235740764949 
-0.02402381240827703 
-0.4535344513551324 
0.6089809625211095 
-0.07008072309306029 
0.2723934708354398 
-0.1191799229618602 
-0.3137419652102595 
0.05683046087224854 
0.1208302377683405 
-0.4432483272959041 
-0.01115634451160577 
-0.2202593986178844 
-0.7048051155326214 
0.1685450757432008 
0.6083062186701371 
-0.1215082887055501 
0.1222320375501535 
0.1996939391471659 
-0.03387350178142498 
-0.3452430293460326 
0.3092589247752095 
0.3509304083960854 
0.6898205341558638 
-0.1458768034295588 
-0.09396016459740374 
-0.224794641753675 
-0.4185689861454977 
0.4106998357871856 
0.1233421169957038 
-0.02505179549741222 
0.4857069840615227 
-0.05408628389425837 
0.02299883980239045 
0.3999626229975634 
0.2426555340825713 
0.5339483609696831 
0.1680498881823539 
0.112914605700995 
0.3215767539585494 
-0.2276075951718993 
-0.3368816998281437 
0.2790271022270843 
-0.07977969850401365 
0.5022054684392491 
-0.1364295149875282 
-0.420244762868822 
-0.1848297351211205 
-0.1579893386110234 
0.1473518006709219 
0.349339122251961 
-0.2801182789788899 
-0.129677508031763 
-0.06343154799033149 
0.03998886430011753 
-0.2186128672692234 
-0.4921358608846239 
-0.2193122685439339 
-0.2812421849671577 
0.4631931085914242 
-0.3185108248535467 
0.1508433234065094 
-0.04504495442352557 
0.2880081533486008 
-0.1038556880892404 
-0.09524385996218669 
-0.01665255654707941 
1.058719567628009 
-0.4393776074659337 
-0.06395849827649412 
-0.03446189857986293 
0.2651119139529645 
0.3087737423351746 
0.01874370363079654 
0.08397176893899756 
-0.2497612285353952 
-0.4076012886186449 
-0.3696240079605481 
-0.17546037526347 
0.01850315862618711 
0.06537888480779897 
0.5762131748756322 
0.5532044725428483 
-0.143654787303486 
-0.3324731238426365 
-0.2937712805642602 
0.6224581075615839 
0.002047673383769973 
-0.1493460894151339 
0.1216740776799231 
0.2480636331263136 
0.3592184864422076 
-0.3827230685506071 
0.3997820037769112 
-0.230174596185127 
0.3061995468276934 
0.1152881976078766 
-0.1229268080191562 
-0.1972707734399552 
-0.2210572102531825 
0.2271376361376402 
-0.4289503539182503 
-0.1259763536730758 
-0.3137155641166062 
-0.05896161138332411 
-0.1986780214243969 
0.7869462205982221 
0.1347356650670698 
0.2914726996768881 
-0.121675139912096 
0.08890654298281651 
-0.05115630907462677 
0.2615158880611322 
0.04013953669073064 
-0.05746506255359835 
-0.2986535425572957 
0.04316051776212769 
-0.08045181551857061 
-0.04589577454220753 
0.4969306302626676 
-0.3160716965162024 
-0.5399609656120691 
0.1904165959349284 
0.2370068609197285 
0.08126408437569166 
-0.2658276291890261 
0.1477718914958595 
-0.2133715568325524 
-0.3432143615676048 
0.5862941826351339 
-0.4183487001667042 
-0.2951869947754851 
-0.3818932210998207 
-0.0817480031977873 
-0.3774860454529742 
-0.1058507453782439 
0.205646447465877 
-0.3983518387346114 
0.272417511416666 
0.7064067646654605 
0.0170343800525734 
0.1531801883875914 
0.2464083441445444 
-0.01066938163849221 
0.05833067661891968 
-0.01803033836527472 
0.4811095380878309 
0.4608077255797833 
-0.1703731105746447 
-0.1304683064708165 
0.09475725836797205 
0.3350602272164117 
0.1230452938237769 
-0.05322657663851033 
-0.0570802174956137 
-0.3816179392931437 
-0.03512548611347319 
-0.0919672224518631 
0.1651343427040636 
0.198009679285534 
-0.3168072939790935 
-0.1536890171186291 
-0.4042092839483268 
0.3538839342266195 
-0.2087396200748902 
-0.315722898400666 
-0.3868436990313071 
0.3019318838939296 
0.1983603409122047 
0.1383606161602486 
0.4134729323561477 
-0.3349426106629219 
-0.07784309032434643 
-0.1791059999953948 
0.05613284594537091 
-0.7043560554892914 
0.1015277128155829 
0.5777196731676666 
-0.1957074760465256 
-0.3825998181480825 
0.0876636765585795 
0.3192128581026963 
-0.1884541165108099 
-0.09824658600156798 
-0.0796398733453652 
-0.2710201068088912 
0.4985589179425266 
-0.3281543579481732 
-0.2848665155738879 
0.05710376658286344 
0.1186347859913337 
-0.3546533971283301 
0.486885461497809 
0.01425059682637935 
-0.4935499578049081 
-0.1227891531357751 
-0.4589480378134069 
0.6055060287618487 
0.489968622600718 
0.2151085456210266 
-0.07171008771744551 
0.4778090161759538 
-0.3407885890614061 
0.1790994342019721 
0.4753801113831288 
-0.1163970310441457 
-0.3824372958942509 
-0.07015294647769049 
0.5884170281390133 
-0.06684845368005907 
-0.0604198521912485 
0.0524555966515855 
-0.0611801756861321 
0.4794933596103234 
-0.3630400358051471 
0.09945627235740484 
0.1024041562996327 
0.254907572071487 
-0.4803252583618841 
0.1460955055507285 
-0.2667031208782495 
0.5979068204418193 
-0.5757791090055876 
0.4707368596231598 
0.340853641335553 
-0.06554806300855334 
0.02361257415622032 
-0.1893973986373769 
0.8405517981728218 
-0.1881244105396882 
0.3753335583204651 
-0.1337252586884349 
0.2109470631705522 
0.2671455692455604 
0.09266275075359094 
0.1293097436983205 
-0.05927446181038877 
0.5939877173755275 
0.7286762053825594 
0.3793569406780517 
-0.4877790300290474 
0.3546937817842956 
-0.1766355671663208 
-0.08321972342749864 
-0.01659271282265015 
0.189443518203834 
-0.1203659753542616 
-0.1552800715528138 
0.09398715350241105 
0.5052931401727878 
-0.003433047773455819 
0.1452761857775224 
-0.2467459264137261 
0.05151951891972231 
-0.3193552659302998 
-0.2293230546237466 
-0.3443371141009439 
-0.2460091467344578 
0.6802167060982021 
-0.3637826362773283 
-0.6817611457680451 
-0.2411473669565358 
0.08275022906113583 
0.3948031298402728 
0.01476646149710317 
-0.1104994486834402 
-0.2139905045817996 
-0.5183595750224188 
0.03214982216962233 
0.2615370755111177 
0.586226091950297 
-0.1814608696619414 
0.3033849321198037 
-0.4312556897216532 
0.01019720509446059 
0.3752729495913384 
-0.07548711528754262 
-0.08332436205314547 
-0.2664176999032656 
-0.174622462558816 
0.04888739360672338 
-0.1666744251900202 
-0.1796362291904544 
-0.2345179534091295 
0.1684593959378568 
-0.007380314240748554 
-0.1053213507285111 
0.03868752061757177 
-0.09420192485976843 
-0.5860892405778081 
-0.09735924887779045 
-0.2772561142957807 
0.1107872276751044 
-0.04091516202284217 
-0.01430387589866233 
-0.2061852688614072 
0.4184503036698484 
-0.2853831266539367 
0.02393082159090401 
0.5286235319625094 
-0.2374710792560973 
0.1231581982978354 
-0.02840279894509918 
0.06185524686465341 
0.09014564567626712 
0.0478494624514723 
0.06863784601939495 
0.2045834338569856 
-0.544194236252403 
-0.02165782493992647 
0.1989384753461486 
0.2899054447243993 
0.05975977331513641 
-0.2809742298623127 
0.5374355650240602 
0.3058660697522062 
-0.0546074210278152 
-0.1594687786634478 
-0.0555642752224103 
-0.5691224152413301 
-0.02513050448701593 
-0.02914466024543608 
-0.214712786340356 
-0.3092585337221095 
0.513880807713318 
-0.2399271405088439 
0.1322723953600573 
0.4589730385208878 
-0.1725830036238838 
0.3080870567357215 
-0.2031937897715739 
-0.1922645136055713 
-0.03201046993910205 
0.3818468090714073 
-0.0944569085181446 
0.09043315045211689 
0.02042883345586576 
-0.1077900319792695 
0.257761181687124 
-0.1680483585322605 
0.2519206596978829 
0.116773159085866 
-0.4222709446844241 
0.1157515874309035 
-0.1360798137414719 
0.1755422603308964 
-0.1122207569785499 
0.2802954196479027 
0.1568597908714169 
0.08738873599338329 
-0.2646318991540484 
0.08324515478060687 
-0.2214401453752334 
-0.0759592244752114 
0.0967352649970927 
-0.02624765577197818 
-0.05235269183086858 
-0.07793543215694314 
0.3581028399844876 
0.1489772188690467 
-0.1665000929859753 
-0.4141560003591407 
-0.1999273665751909 
0.4562492033730107 
0.259027874815095 
-0.574445251969279 
0.186583851187193 
-0.3327688047092817 
0.1810302330505663 
-0.2083539805780746 
0.02273239861682288 
-0.1868295306308768 
0.4260319998671392 
0.4428351751221136 
-0.451340225320471 
-0.1683170014053979 
-0.4225420947580932 
-0.2802429591687367 
0.2250474239107051 
0.03272312395196628 
-0.05726071391512055 
0.03031977328776983 
-0.2075348279629465 
-0.2064837196970353 
0.01420722745510781 
0.2558007462711291 
0.3250479536500173 
0.3092395360418296 
0.3068302830237556 
0.40022040725648 
-0.2421386547743318 
0.5458069400517626 
0.2236680780329539 
0.0152979767019542 
-0.3180757096202762 
0.4622787165444021 
-0.08866208286675532 
-0.1229254928620705 
-0.1777302269914377 
-0.09211667701073234 
0.0537221162533373 
-0.4408589207186334 
0.08657095438550906 
0.2987401283601108 
0.2508808457413526 
-0.04179602692953735 
-0.1492810841605182 
0.09550365610379802 
-0.163388561875691 
0.5500674218278221 
0.2641270549668801 
-0.2096375725734305 
0.2561584889085627 
-0.1394339261949068 
-0.01778991851578211 
0.3334230912732579 
0.1819282639092023 
-0.05841900162340645 
-0.06947651424841093 
-0.08325632735195766 
0.1014100080909547 
0.43198439223174 
-0.02623283802268519 
0.1446479023742366 
-0.1642052331319973 
0.5150167914543087 
0.2649300544847526 
-0.02295964963563051 
0.1691805403894031 
-0.08142783950447853 
0.217389635974073 
-0.2547737301327701 
0.1026408707615426 
0.3715889744691205 
-0.110443996151111 
0.01167009537349175 
0.5222909009402684 
0.1363806964409404 
-0.147619238801373 
-0.03115365310776693 
0.0144118909959708 
0.1976860466758296 
0.1829327056214286 
0.09798458621534778 
-0.3689132548037949 
-0.1422905360485334 
-0.1381078201411922 
0.0769577057187838 
0.6045635514053547 
-0.2398730187837782 
-0.1233091030170384 
0.01082026525021365 
0.4001667878192421 
-0.3015282552700339 
-0.2616546930049376 
0.1434536231043807 
0.07923453792754553 
0.1084915777740648 
0.7102534933239232 
-0.2067598107407326 
0.02146611188346887 
-0.07265907323965452 
0.01006308244411891 
0.1931938975227231 
-0.163889195445062 
0.3734075374016275 
-0.09881654422499181 
-0.6812749953777674 
-0.1924510863068563 
-0.02973422246363815 
-0.3913088987841525 
0.3341138809971796 
0.3975391771227557 
-0.2841990949817342 
0.3956893133132761 
-0.046849646634497 
-0.1844345927902923 
-0.1217829973831008 
0.4499266033937336 
0.6091653147073299 
0.0968453044912914 
0.4094095633307411 
-0.07236289549616735 
0.1659839023870391 
0.03772536873103656 
0.296222938097807 
-0.01049383804078999 
-0.2580310003849036 
0.3000458980175894 
0.3674027251465786 
-0.3083254282957158 
0.002066559621420029 
0.1057021927119375 
-0.3500632356825962 
0.2155572760053498 
-0.3897522989870557 
0.4518543632915748 
0.1768466646689084 
0.09955146752954258 
0.3122021817268449 
0.4005784090000012 
0.09065168513135856 
0.4089632495667689 
0.3532666485645896 
0.3995686879156567 
0.3279296786376907 
0.2845196204507349 
-0.1638439311555405 
-0.174266048005432 
-0.535313506165663 
-0.006743970993416938 
0.1022237250410731 
0.04409812739300593 
-0.1112704823338267 
-0.05112915981880722 
0.2260576471059582 
0.2403531350125658 
-0.1281892193110205 
-0.009645612197428634 
0.3473703457520346 
0.3962329082999775 
0.2313295312324337 
-0.07592357676368412 
0.1606019906032286 
-0.08758640888931997 
0.438938320184589 
0.3862196026611773 
0.1061947336674266 
-0.2348475828653515 
0.02173305093353105 
0.2197154158957347 
0.3978032071808867 
0.1355019138004904 
-0.3299028337678946 
0.5960312555360866 
-0.2343672912706032 
0.6091266944249818 
-0.2582024118354292 
0.3566211519032546 
0.482465587687466 
-0.4226235036651567 
-0.2599801944682051 
-0.4005326089118066 
0.6853470611042896 
-0.003368000256763271 
-0.1166195803570183 
0.06904950240345412 
0.04095218301676023 
0.1858835775940505 
0.212725312008877 
0.4602110296594182 
0.4908277729431768 
-0.109494973464369 
0.6131966219824944 
-0.2993980912559142 
0.324878641921436 
-0.3197162509891275 
-0.5184968417172275 
0.06138550137301958 
-0.05603091694503958 
0.1412340935321773 
0.06563135596957284 
-0.03805169156495702 
-0.2910652184286938 
-0.272054123611253 
0.04941475039264393 
0.04013381163163671 
0.6697875882434108 
-0.4281625461888154 
-0.2849732176485931 
-0.270172096702403 
0.1652746179604651 
0.100898136484771 
-0.407806533241258 
0.3388027065102482 
-0.05956222012350026 
0.05789160747903845 
0.3029930359991663 
0.5358896679478473 
0.0887265279833825 
-0.1423965939332789 
0.1922046464802178 
-0.2996595548847919 
0.4331953436139903 
-0.2382702883103059 
-0.04130087728686058 
-0.2125856275580418 
0.2465835516810417 
0.2628182228986893 
-0.1396255433883933 
-0.3733458597752751 
0.342028856174545 
-0.01767240651247939 
-0.3766956645179755 
-0.2405242365367314 
-0.02321894492325856 
0.1313789572685992 
-0.251348336506267 
0.1703376304738474 
-0.2160253650460388 
-0.1988287012395231 
0.11916201265909 
0.2393246787600905 
0.06129808406145256 
-0.3813574471737457 
0.09897669831131301 
-0.1199008735374384 
-0.0748444425499378 
-0.5211436932416744 
-0.3548640744420822 
-0.5750674154224893 
-0.2002467748225251 
-0.04441202380931504 
-0.1422573273157479 
-0.3208051982895708 
-0.3433929655394249 
-0.08786060052092148 
-0.2440184229644734 
0.004991879147393766 
0.2147318995329332 
-0.02541171232905694 
0.06359015054439125 
0.266411179178896 
-0.3515455137955326 
-0.4842214944409884 
0.1386702296131011 
0.2089106116534394 
0.5535483805651763 
0.2138791620374393 
-0.1680397761348168 
0.3335641714168989 
0.02045977008071488 
0.1652590325881886 
0.08708322406771706 
0.1015206778410355 
-0.2974699101172153 
0.1265681785773728 
-0.0339045288629968 
-0.4723612748867421 
0.06119013123083479 
-0.1350146281683084 
-0.4705727503528711 
0.3652305913519969 
-0.4765928450040083 
-0.2054733297444186 
0.2938256185148067 
-0.1300684260968532 
0.6636767719142731 
0.3360014023840372 
0.04387940332889202 
0.02907680563332571 
0.06790801212927586 
-0.4621269809704719 
-0.1919417736670609 
-0.1205546502556074 
-0.2206650572260745 
0.2894142959675721 
-0.263812160582134 
0.4166960833572945 
0.438489263631259 
0.2246318597942686 
-0.1898607997745328 
-0.5502985435133836 
0.1677860719428021 
-0.1045885932139758 
0.5337664614331902 
0.007677181922853853 
0.09575708505960927 
0.3364611532347 
-0.0002621629007861682 
0.1269383264756697 
-0.09447104396741314 
-0.4159201311772494 
-0.2324053632637958 
0.03261912120591849 
-0.1870888196778655 
-0.3499325669196131 
0.08038745295308203 
0.6005332291529594 
-0.1490550340267179 
-0.2679719898437421 
-0.6183176094590833 
0.1327671570508157 
0.5525533065486411 
0.5343058599605588 
0.07516956203774097 
-0.2057432075644822 
0.2615476465744936 
-0.288066888971265 
-0.6286870378412574 
0.1315109564158244 
-0.04706643740529249 
-0.2581743703941375 
0.4262105270870513 
-0.04065815886158045 
0.1487798423206588 
-0.4192059824423279 
0.1633697263473769 
-0.4828346235675547 
0.2463954190523277 
-0.2029351833632273 
0.005107191941521781 
0.03381738838280472 
0.06763952580042473 
0.3233445407608727 
0.02474904194050205 
0.317420771937495 
-0.3648182233426087 
-0.2968818042694578 
0.3039690804706453 
-0.2112625957723093 
0.2220575835259566 
-0.06580870147187201 
-0.0708765383919195 
-0.3622160435134566 
-0.203014712999548 
-0.05498830538456009 
-0.6099221843690481 
0.184036087974558 
-0.3416726293182264 
-0.2497658739953278 
-0.3637489036230975 
0.07538384878727696 
-0.09507210389794248 
0.2157551830390408 
0.001636086470404267 
-0.07041107201479491 
0.1629957707223685 
-0.2382476737779058 
0.05464280133520013 
0.2723724577157256 
0.2605295831441261 
0.3313797376953575 
-0.5637890019669644 
-0.4886336593926814 
0.1010284245725369 
-0.0210178816198845 
0.09144030432875214 
0.8295399921443922 
-0.5769796611695257 
-0.1518167985298214 
-0.3036418622974321 
0.729536453454494 
0.3001951167624096 
-0.1942154704002054 
0.04004584170487985 
-0.2624787371170363 
-0.1241947970691426 
-0.01408954365702761 
-0.3679205795166524 
0.08292535352455252 
-0.130136756602374 
0.1417755669360989 
0.1165414602264169 
-0.1571431552275689 
0.4784788676436624 
-0.1826872469232815 
0.2198188330671732 
-0.007050099268988069 
0.1406789241680809 
-0.2499761421062942 
-0.418600725620018 
-0.1549069642631951 
-0.001224526361929832 
-0.4912269115681319 
0.2414179857648313 
0.2557558779461124 
0.160315382513569 
-0.4659066166271575 
0.04279086739183852 
-0.8411536373376486 
0.40034292955297 
-0.06935131514197766 
0.05746728621889303 
-0.1432338320306583 
0.2328765014758322 
0.2435494722719838 
0.3996914081118524 
0.309113105953658 
0.1490550612012883 
-0.2550214993446886 
0.02985993627306686 
0.1341146265883595 
0.6608971756086921 
0.02768626058625567 
-0.04929983536245246 
-0.109755051013494 
0.329338353736652 
0.2712585227737727 
0.2474768996908677 
-0.1396732550891478 
0.3152388249196492 
-0.3689705266245251 
0.1765023276165628 
0.3655345524038167 
-0.0710907550339539 
0.0582420747731398 
-0.02752248861000492 
0.2291069414861073 
-0.171941204567718 
0.415018275823809 
0.4274014805187037 
-0.4439633780845665 
-0.01440023271956984 
-0.2899738208753093 
-0.07699296543506003 
-0.007077111721185191 
-0.0780982913159487 
0.1375357707806622 
0.24594076896191 
-0.007505095004907321 
0.04484565080585039 
-0.01018611853929937 
-0.1881512229909146 
0.07769218249869624 
0.4247370968357705 
-0.2009556037992263 
0.1231557258172773 
0.4236303665281968 
-0.1901511877779428 
-0.5040766719761735 
0.1668002688353634 
-0.2183890928110237 
-0.5063873652736531 
-0.3602805793964578 
-0.1406686565757096 
-0.01760353123290243 
0.06045789820618354 
0.1892364914902008 
-0.1721588698574071 
0.3401272319740298 
0.670216827897183 
-0.3045379076391135 
-0.2097545015344611 
0.5756743933609374 
0.4101815696839444 
0.2799075705275326 
-0.3031021619215797 
0.2143308680104767 
-0.07525214267585081 
0.1460610773935072 
-0.5371476138338364 
-0.0799469072100405 
-0.1104373397679408 
-0.2304656316565927 
0.1849817189084594 
0.0985972949272927 
0.1720546596802237 
-0.01363458632656473 
-0.2715171971482379 
0.2245827010628039 
-0.3766470496791963 
0.05016471864797577 
0.2187678177844099 
0.317092460094772 
0.04602248374077403 
0.227212650190135 
-0.1847392052810781 
0.258608720362591 
0.3465959549806779 
-0.552295217292734 
-0.1822252021909673 
0.1930430402931789 
-0.2181266244689047 
0.2685900764657568 
-0.3054124174096582 
-0.5575412923149977 
-0.3602801075268937 
0.1155976479436916 
0.2429018085936235 
0.3972930797985061 
-0.02237160425279517 
0.10339744019255 
0.03106502562745436 
0.1973440622855193 
0.1753746763686676 
0.2619839813880317 
0.2270035555919026 
0.05313412864360143 
0.007256475626216596 
0.1000265120889755 
0.310066143856543 
-0.1089654069845616 
0.1253854211919817 
0.1610662283797202 
0.09546819823582191 
-0.1301779146978717 
0.6501507479899763 
-0.09666327431996043 
0.3196262088086012 
-0.1180115807185438 
0.3334398299298725 
-0.01358829141024203 
-0.2470120837448441 
-0.2543597442009419 
-0.1551765838607178 
-0.007555808221850585 
-0.2075491539366006 
0.4153364232390784 
-0.40909075122152 
0.04632888829403044 
-0.2140509706442346 
0.05049756337503037 
-0.3522813307258886 
0.228835347407372 
-0.3121815406302362 
-0.05874634372186154 
-0.1137378855922871 
-0.2220738615145021 
-0.2724624534197313 
-0.243559888351133 
0.2055364217086442 
0.234508634183202 
0.05942654837006047 
0.4869270166114413 
-0.2135240137866362 
-0.08894726226468702 
-0.3381788409709134 
0.4833513492132053 
-0.1251505309587278 
-0.9305018841365221 
0.176062912664865 
-0.2582742524411387 
1.014546368502534 
0.0776853325976085 
-0.1940809344440243 
0.04977172397529708 
0.2337271166904835 
-0.1614213370230078 
-0.293593413484693 
0.5159158628363321 
-0.1406103894695037 
-0.126571502924138 
-0.05547338151601758 
0.03458569745776209 
0.02314564882478744 
-0.1210718998337599 
0.3967829663512917 
-0.3221259457765761 
-0.3835132759947809 
0.009355028280330573 
0.04782797192096282 
-0.1508940684300172 
0.3610019206758219 
0.01024820215825623 
-0.3303040706818667 
-0.294372964287574 
0.1235200973866769 
-0.3306864583800991 
-0.3788751003815535 
-0.3734781517920662 
0.01067447078165706 
-0.1311400799731308 
0.007351930617084205 
0.3057855966718445 
0.1879423745514782 
0.08799453499205731 
-0.0559731530600873 
0.3558474899234178 
-0.2765088659430819 
-0.09504518988691879 
0.2310260648220266 
0.3500192246632914 
0.04624353545380372 
0.3249944828449421 
0.05851805224892791 
0.1728266563583035 
-0.2681839968509097 
0.1330441046065174 
-0.4244319559523777 
-0.1946131846975515 
-0.120680403245416 
-0.1898922842676609 
-0.1509745624130491 
0.1708316554927187 
0.1715899910805471 
-0.3299204817136402 
0.1384731383982057 
0.140968619173339 
0.6129127098859128 
-0.2158847960545167 
0.2013324478759603 
-0.35215457640475 
-0.08719809278906185 
0.02565235775946514 
-0.05793193628381226 
-0.1145946447703506 
-0.1500692292523445 
0.0715083600133702 
-0.3590941959059881 
0.01004528721287831 
-0.1537229855623055 
0.08307548748067162 
0.1045031344545895 
0.324809715621041 
0.1009738731796796 
-0.097085713998153 
-0.1328707009528429 
0.1234052480066121 
-0.03769737702923256 
-0.3428333261821082 
-0.1916121542412876 
-0.4671215713584084 
-0.005168065920939117 
-0.2862157418166521 
-0.1057699454834919 
0.1504008252172004 
-0.1895011128817727 
-0.4881232256364447 
0.224263665637793 
0.09900058011045201 
-0.06184489236098918 
-0.4256142997678989 
0.2706719494285518 
0.155658688423866 
-0.2741649500788171 
-0.3104839068529718 
-0.2916805284775957 
0.3311856148125317 
0.1253673015061179 
0.4002225966129872 
0.1277579408183425 
-0.1186414067580024 
-0.208386724061195 
0.02508949256672017 
-0.04416681927090439 
0.2682153646661726 
0.3315857713781509 
0.004779826287353171 
0.1371094438992614 
-0.2434806294220036 
-0.09776661059444171 
0.2681062910062679 
-0.1904019765832108 
-0.1790187473616973 
0.1924497576028626 
-0.3137731642724455 
-0.1998598978522597 
0.2747315100298852 
0.09581666537357371 
-0.06678049451504491 
-0.08501870984984608 
0.02046742122632537 
0.4359821678259707 
0.5423978766900544 
0.01904217749407097 
-0.4295331735259921 
-0.1135427724348351 
-0.2504266773004815 
-0.08287198079000659 
-0.009533821200634517 
0.4730820016274446 
-0.1802282786474534 
0.190417112549662 
-0.1382189492090301 
-0.2080172372069854 
-0.2865711016295767 
-0.3031856823547784 
-0.05801025628827519 
0.2217205542819189 
-0.1179221942694996 
-0.01909763016211558 
0.5274101562548554 
-0.2784335745325724 
-0.5688871375209881 
0.2911494657705885 
0.336127425093503 
0.428009590638104 
0.02788747269791433 
0.6836609825861202 
-0.1683376443285115 
0.09426920219226243 
0.1481602710726523 
-0.3794285543550109 
0.5077720058949559 
-0.4584982961779063 
0.1605367293645559 
-0.1966306608221164 
-0.2666725499778652 
-0.7540334573780886 
-0.2114018633567641 
0.552148410317689 
-0.2132197915027167 
-0.3070033528445778 
-0.1763590485346533 
-0.02901896005476511 
0.1587892330945487 
-0.2183112524515383 
-0.3419941313266436 
-0.3864592359619525 
-0.003724030685277659 
-0.1961907070659711 
-0.3957848442216909 
0.3381227025757829 
-0.1738088555310648 
0.2134466731041707 
0.2300331561264297 
-0.2097319918507684 
-0.04799699000605517 
-0.3406800026454024 
0.467778882076075 
0.5653060657204746 
-0.004984927305157306 
-0.3251887145116166 
0.1281277218284241 
-0.1131886055095777 
0.4882204483384943 
-0.06837165679173687 
0.1726663990890476 
0.6764249525732434 
-0.2193649729595396 
-0.3999529113625175 
0.2585399761723992 
-0.03234831018263455 
0.3747480598678217 
-0.2447122529728323 
-0.4807553368445109 
-0.2994074757817334 
0.1536903198482961 
-0.2250310924308938 
-0.0613297671629358 
-0.3021707070697413 
-0.1747688706185573 
0.4354449689408697 
-0.1809306459532053 
0.1472772808049742 
0.4207791519425633 
-0.3650003171502649 
0.3820162398391949 
0.319851807789151 
0.2750989400769355 
0.1315216668281697 
-0.0726990783101937 
0.401651852953342 
0.5367409927298132 
0.02598589689912839 
-0.1013494617562 
0.1696300223221627 
-0.2468800412450581 
0.02087832795636802 
-0.09244661585548911 
0.02595606635634141 
0.02439724690161076 
-0.2036063364760377 
0.1487873298226045 
-0.2990021750441506 
-0.1550791630944745 
-0.003324139127518202 
0.3258206269788316 
0.1566738662940376 
-0.258691733662721 
0.01444187650443261 
-0.01041958775565869 
-0.07020339102511639 
0.0665141073705703 
0.290805796507028 
-0.07789800593909968 
0.04299297280615005 
-0.2213348082515444 
0.00762784032181649 
-0.499206549132376 
0.04716839472279695 
0.0736273747286345 
0.0115928341988258 
0.1058608800572021 
-0.2152458048435747 
0.2061190539717536 
-0.3760237998050775 
-0.01830313822098917 
0.08141270342022702 
0.1228338618365955 
-0.2215430682299839 
0.1442303753924372 
0.1514179842605306 
-0.1307144647503362 
-0.2310491097412755 
-0.04829937273161372 
0.1243909471484374 
-0.1905587658034687 
-0.2223896603550986 
-0.1544898478829793 
-0.369868003576914 
0.02826853770831117 
0.1392811619965729 
0.3604363516324991 
-0.121115088168636 
0.05187823027352723 
0.1352719733974668 
-0.03708229863152122 
-0.3928854861122522 
0.06690523877649915 
0.5477566240746857 
-0.2442012414707269 
0.6824821188411813 
-0.331991695404657 
0.1606625100712401 
0.1475385801063537 
0.2280404840316851 
0.06177847929322489 
-0.1415437640299573 
0.0361045879834449 
0.01206736799424552 
0.1833439610697127 
-0.06439418745072931 
-0.5137913245958428 
0.4129084375748673 
0.08413736344525309 
-0.1179644759190217 
-0.2061600581315382 
-0.00405988616785924 
-0.2446274639340779 
0.04976610384129735 
-0.1600959212845424 
0.2982772885155271 
-0.2440661649978132 
0.5612752393530103 
0.3554286292058113 
0.2077101564901164 
0.3869007702121037 
-0.008740492395135319 
0.7046013724919457 
-0.094175486443084 
-0.0841584659416291 
-0.4903186002201088 
-0.06433685929733748 
-0.244574919016207 
0.6342894778842768 
0.1908927098627168 
0.03783393103776946 
-0.1280113517557308 
0.05439095970935071 
-0.3384998665823486 
-0.4471459607630318 
-0.05650011993888843 
-0.01551913672567843 
-0.01874125116463871 
-0.2082552791751611 
0.02979936045970847 
0.006071227829630115 
-0.2182512281045014 
0.2131634458191962 
0.1736949743772897 
0.2078226927883065 
0.1945407631353495 
-0.09761922106355496 
-0.2697275560989355 
0.3222232183491757 
3.660359610881852e-005 
-0.05651994018064339 
-0.1072753302922479 
-0.5549698497727476 
0.3410972317572022 
0.2513599777982308 
0.2126418144595546 
0.04822422481887998 
-0.6399939910518231 
0.291322653221362 
0.1427749012688717 
0.1896749170826214 
-0.0845235329209027 
0.3277332891475855 
-0.3202304003502459 
-0.1363908057547926 
0.1195567107131139 
0.4189570286477622 
0.2539101513191093 
-0.2390797705494714 
-0.1017083095176196 
-0.3249177421215024 
-0.03712061381213623 
0.0748151981955633 
-0.4085502873992443 
0.9292989748052943 
0.3513220364835994 
-0.1432740109747613 
-0.1948658183597731 
-0.2222677390402411 
-0.3278231680406249 
-0.06408877243781919 
0.7386904444135041 
0.1980681304969541 
0.03624696631335258 
-0.1640927502239447 
-0.114427457668744 
-0.02934644583219464 
-0.07649377945803979 
0.058304785549639 
-0.1497064745094404 
0.1881951088018719 
-0.1023826154163901 
0.2253267652329638 
0.05130680100129026 
-0.04935883093445008 
0.3845963286030495 
0.07990586074751142 
0.3291896426828001 
-0.1816537892703359 
0.209755129690855 
0.1011456682282827 
-0.08278495709058265 
-0.2688113072958974 
-0.02331847376792492 
0.282532635721147 
-0.02799620464518702 
0.2227540381771423 
0.4615993669381585 
-0.01338607366974607 
0.3513380184680644 
0.2851220550001251 
0.1158092519386688 
-0.4696812622830368 
0.3657262660080939 
0.3976306694286377 
-0.1778829508847461 
0.04734004401898314 
-0.1588349019383876 
-0.452766474472229 
-0.1110479187482979 
0.2988709329185416 
0.4460758835643966 
0.2219443572513664 
0.08049259165142662 
-0.1534624318021549 
0.1486490276183397 
0.06516495777179425 
0.303220543041007 
0.1150089020511934 
0.06611676258591806 
-0.2325588699347702 
0.3304522438732151 
0.10916443349632 
-0.04961390363473381 
0.3808417662796522 
0.4870181519924516 
-0.06161197856641039 
0.06861911772159109 
-0.2426459187870855 
0.373308580044747 
0.4693758676959948 
0.1859360782389067 
0.2134591378046494 
0.01917802566306463 
-0.1368623784567287 
0.2973482982782715 
0.002584193835311699 
-0.2400751028072969 
0.3142473811653459 
0.1723408872517578 
-0.5515642887369906 
0.1981139151554442 
0.1371827826106579 
-0.1432757413015897 
-0.0180445710894082 
0.4469206186127249 
-0.3788378886652627 
0.2590023708273668 
0.09665597789274381 
0.214142398201162 
-0.2710018664138359 
0.004985466545518349 
0.1124884671919737 
0.09623783387420286 
0.1556389068119178 
0.1043890392006683 
0.1390218129350697 
-0.1369536766356686 
-0.05078414060569234 
0.1499052899202878 
0.174561571314017 
0.01428698996128682 
-0.4588714291094285 
-0.1668768565939495 
-0.2059993211220217 
-0.141961337834852 
-0.1915431247757777 
0.1017778475146934 
0.2246793085235105 
0.1397592712891023 
0.2486687570967006 
-0.08385625011426832 
0.2799702647309775 
-0.07829352648299331 
-0.1627435218508969 
-0.171926143738813 
0.4521333071699851 
0.113653951578411 
-0.01769070850525803 
0.2361634414997024 
-0.02168515820095892 
-0.1437030773500527 
-0.03511117705668305 
0.108587617333865 
0.4902494467191348 
0.04807792469342585 
0.03535539990013895 
0.1991686428537904 
-0.01347609448011179 
0.05723570673677552 
0.1468175513447043 
-0.1720062790369884 
-0.1563006444019838 
0.07274321615587419 
0.06620819648437844 
-0.08315088073037294 
-0.01449636340550395 
0.07872241178005691 
0.03094455804733714 
-0.2924516803670636 
-0.2299254777175182 
-0.003948050519548038 
0.3420008998539772 
-0.03103971149971612 
-0.06620020522741088 
-0.6801098668156107 
-0.14787212648107 
-0.2313989675460242 
-0.07538740274992044 
0.5963294481663701 
-0.08777554533640372 
-0.08968944225956507 
0.002635024239405669 
0.2396873551021848 
-0.1489824175365013 
0.1277860904918316 
-0.6302121398299131 
-0.09045260155468983 
-0.1499337634801648 
-0.09703097434559838 
-0.3194966581714683 
-0.07495954379834288 
0.065373239389882 
-0.1142501509660277 
-0.4543314344953459 
0.6812925226119937 
0.008149304805425747 
-0.0957415269263881 
-0.05511176736491206 
-0.03661077967612633 
-0.2757164990567997 
-0.1971939553001732 
-0.1832209513616682 
-0.3380656046244387 
0.1468728037257197 
0.06202576205829784 
0.05063450733750607 
0.1358784768713361 
0.301155876662734 
-0.1578619652447705 
-0.2593752899373574 
0.06641190697677067 
0.04077847064625267 
0.1013527891098638 
0.0127649016178253 
-0.02413440673464471 
0.1926986466202098 
0.04682922227580634 
-0.2916172236164019 
-0.03454908937327218 
0.5013561511254906 
-0.01789863684979079 
-0.5423463637672599 
0.004935980765174719 
-0.2184314489769015 
-0.06940609435803066 
-0.180097066251185 
-0.1678091516770807 
0.1787659227964832 
-0.01207608529730508 
-0.1692304203184833 
0.02093384757789012 
-0.1520537166264337 
0.2651997683774357 
-0.179793417231238 
0.1461292265472802 
0.284773187763654 
0.08848319735621024 
0.07676961672148537 
-0.04156999302681557 
-0.0352178064642312 
0.1172363701774438 
0.0003752760465920583 
0.3099104390251649 
0.2114432745094509 
0.2291383249483046 
-0.2949351594948003 
0.1235336725460211 
-0.3228348294597747 
-0.3784810470703719 
0.1499611565185462 
0.1702752463423664 
0.3547565549207493 
0.2590101603854301 
0.01362381713838654 
0.4543749928960534 
0.1257285558027219 
-0.3340850137397078 
0.335880010745462 
0.09949953989038984 
0.4022766714352861 
0.2126520911051092 
0.2493714499094722 
-0.06564768733643522 
-0.03967652407531853 
-0.1853068496930166 
0.1613209665947796 
0.2010403177274557 
0.4424537321748053 
0.02493013450310971 
-0.5059220224951102 
0.1407444068023378 
-0.1231623537044922 
0.1710016575782664 
0.2565635572115489 
0.1687644411066508 
0.316111382510521 
-0.1190188599119525 
0.181270703798285 
-0.1750666013279847 
-0.3277229059614595 
0.3889482253112328 
-0.1658326906151835 
0.2513230494373429 
0.2239861779608252 
0.1433172950295576 
-0.02189964623417447 
0.04844623570883132 
-0.1684379222483582 
-0.170747763832879 
-0.1148315778201239 
-0.08314927908204785 
0.09810743021565159 
0.2606887911157443 
-0.1790714506809663 
-0.002322590585180589 
-0.3912226356663318 
0.4531840150902352 
-0.5501433235903696 
0.1063994521344457 
-0.2340057500840271 
-0.3632618842858273 
-0.1898373912121288 
-0.5106391374897819 
-0.1075784003720593 
-0.07769777328494329 
-0.09890912946053249 
0.100812250558766 
0.2447912564199531 
-0.01847763896838607 
0.003722715381529838 
-0.2108579615211383 
0.3527639772428123 
0.305508438669227 
-0.01532091804341881 
0.2998755549012599 
0.04040954088056462 
-0.05673467670421769 
-0.1254916046269616 
0.1154887897711173 
-0.6054136383299127 
-0.06124308508807765 
0.6570043339601883 
-0.09592126161097389 
0.05301902359648153 
-0.09134421520954551 
-0.295350274843399 
-0.03156450349967767 
0.3585707190166249 
-0.1744012104189066 
0.1146340585447769 
0.1823945795735456 
0.4199809567255846 
-0.253662064213061 
-0.02063918230936461 
-0.2534459147490879 
0.2898148988893368 
0.09847994284452015 
0.3313375421775385 
-0.07526682857340124 
-0.2883141352869658 
-0.07280982039323361 
0.2817645978234568 
0.4342927656245277 
0.1403874314777582 
0.1143281894979478 
-0.4678294285797496 
-0.04821021092788157 
-0.04551755647506266 
0.5003778371700918 
-0.1328638958549379 
0.02647200354545453 
-0.3112196980254578 
0.2773546863108976 
0.348499436157201 
-0.177015568386849 
-0.2319373916816046 
-0.4100346839374693 
0.3441421178260274 
0.04682841990661216 
-0.09651127761842139 
0.1199856902431071 
0.04723592647374721 
0.2281316282100303 
0.2882140874452181 
-0.2411910559563234 
-0.1519341784971167 
0.3704808155627477 
0.429144478174339 
0.1936924026636896 
0.4513015299563079 
0.1361493989558678 
-0.2886799685697765 
-0.02684670921383492 
-0.1917747591590203 
0.2650788711885522 
0.2756913924089042 
-0.1913157919909649 
-0.2861838997497344 
-0.396590694762066 
-0.1941988918286643 
0.6154798143051339 
-0.1894739328003965 
0.02893233787740792 
-0.3663932970916489 
-0.2880990773342174 
0.1781693212008209 
-0.2995396742444287 
0.2905949713959043 
-0.4416040108588881 
-0.4403319655573521 
0.2430333862064789 
0.2243520124359685 
0.1695744676236972 
0.3768959375002264 
0.08535030095182836 
-0.1444363101452464 
0.1664287382466396 
-0.1421128572086046 
-0.06773593313862564 
0.2290403741432212 
-0.2659905046108162 
-0.007938619182458669 
0.1829728548075973 
0.1289856924921245 
-0.6319165368218563 
0.274477737220043 
0.05150362614248397 
-0.09941766986043496 
0.1303795101934301 
0.2636349054868983 
-0.2981107153854435 
0.05307350159748892 
-0.4381569749418757 
0.06115083578988863 
-0.3208978092263438 
0.2798842358135246 
-0.2166553120889615 
0.4361872157664695 
-0.1450589622289786 
0.2890715805320437 
-0.3084107626995921 
0.197885182630455 
-0.1556157676238049 
0.05083811875177043 
0.1003305644050016 
0.06587509336992679 
0.03700300652586758 
-0.06842091706239664 
0.1336085339811699 
0.3438302523409434 
0.1677712971570899 
0.2490514468664604 
0.2654875779307767 
0.4594579733569857 
-0.03979232933541877 
0.6330581909196683 
0.06053620810824351 
0.2433192233901889 
0.1882783170267529 
0.1004915516833099 
-0.1251060601490618 
0.2748927056064723 
0.01424044892154803 
0.008405072450739766 
-0.4598938568701745 
0.07918624194532813 
0.1081721298563639 
0.1496061398490251 
-0.1146881720765603 
-0.2150426365546431 
0.04304145152286889 
-0.06545213902856054 
-0.1526636253772826 
0.03261808315215946 
-0.1443793551840131 
0.1965731195754092 
0.0005418224174665718 
0.007795293149954846 
0.0419898694238621 
0.1628924014803586 
-0.338020879205259 
-0.2916653302133064 
-0.1088476083032263 
-0.2074271633662611 
0.09661392627445013 
0.394117562511716 
-0.1427221826544325 
0.3361940520689499 
-0.1432453664606763 
0.06640416960115032 
0.02959498974623174 
-0.1895032545251023 
-0.08512568225696882 
-0.3017513187533761 
-0.07114624457470033 
0.4057742475487846 
0.1025049343343432 
0.02768665749951966 
0.3415480004259267 
-0.2761622189834195 
0.2976373748307249 
0.07793865984312086 
0.1905759502287839 
-0.1566154312575525 
-0.0226843346781766 
0.05257001522253767 
0.06030495994406446 
0.1516504528757253 
-0.09510299626177284 
0.4177832944082782 
0.1153925488320837 
0.0806880077825151 
-0.3028970115070598 
0.1106449681807974 
0.05063684106755741 
0.5347890917159609 
0.0266691816982761 
-0.06555351625028907 
0.2507047898330111 
-0.13273111593332 
0.1071323613999723 
0.07970830964597123 
0.1153109548245503 
-0.1862448072409302 
-0.4626889901825901 
0.07674159803509034 
-0.4336048223459385 
0.1729642984897503 
-0.002058892519102116 
-0.358169076052024 
-0.5530088301367571 
-0.3451429261241137 
-0.2118998808997616 
-0.01875505821818165 
-0.1101453548164654 
0.1737453089428021 
-0.04910102433686832 
-0.1646640811914927 
-0.01610735402211097 
-0.188275128099887 
0.1990559714985869 
-0.03878299624728997 
0.4793184641082978 
-0.2113335411408669 
-0.4997954832590113 
-0.1399806395417734 
0.3670753028263931 
0.2689570247325858 
-0.3705133637378222 
0.1646464400839299 
0.2197324754256238 
-0.2419756710288346 
0.5265720071240814 
-0.2402136828313368 
-0.2356243174237084 
0.2729333138960547 
-0.2067751699110139 
-0.1062347623139544 
0.466722768086581 
0.3161379291328499 
-0.06408130630442523 
0.01444327176623307 
-0.1308849441046688 
-0.02313041213197777 
0.1197259951559161 
0.1477212848425854 
0.06418505239497531 
-0.5565863372819887 
-0.1066326628627304 
-0.3554254127442078 
0.006429917448288127 
0.2646430534028452 
0.2703356911491525 
-0.1097423536453046 
0.1657467875456049 
-0.04582811477405448 
0.261608108535323 
0.3497823176689248 
-0.05463950534213534 
-0.03243082078204138 
-0.1040027546532236 
0.03345716751710315 
0.1678360668830953 
-0.3811308944777156 
-0.08986770033728192 
0.04048388154630501 
0.208297721139922 
0.1221494196737757 
-0.2991703008737813 
0.04606518815452933 
0.03720028278152109 
-0.0249468702600717 
0.4862716946574794 
0.04353059880342601 
-0.1303043108870587 
0.5257692731061058 
-0.2528307150904645 
-0.01275124190534376 
-0.487169473447114 
0.2145857982484834 
-0.1342331332342808 
-0.07882304348501265 
0.1522533422712306 
-0.119304053275562 
-0.1947569495073418 
-0.06548661575054603 
-0.1099873556144265 
0.1910734574772631 
-0.236351365892309 
-0.2806791809153446 
0.1260448007303949 
0.1653870991267042 
-0.08491825160235404 
0.2979452523400273 
0.05198199719595718 
-0.4417816880960288 
0.1569960229727826 
0.3521340231504137 
-0.2710813978139585 
0.1808305124086457 
0.001562744742302098 
-0.2595605041815012 
0.01540289893672505 
0.4006574229306617 
-0.001505353444013295 
-0.1559135778213246 
-0.01498621253925618 
-0.3451662522535737 
0.02329752789599691 
0.02237837308467014 
0.03552989619596793 
-0.07844692389154513 
0.08559472019823838 
0.04994003576232514 
-0.3235556810786842 
0.04597275123687059 
-0.2633041905865064 
0.2710501984433739 
-0.6282287989492192 
-0.3863450717730837 
-0.5406911657281579 
0.3230841867836859 
-0.4382598670182669 
0.1418309036217688 
-0.5148761979171336 
-0.0281142121752292 
-0.246090057113847 
0.01313382697778624 
0.2623545691615766 
-0.3465341688542629 
0.02971491064200925 
-0.5258034231290583 
-0.425621192192601 
0.2231588909679828 
-0.05169525589021821 
-0.03107227101092074 
0.1337404692162464 
-0.04690084419345992 
-0.3139581022705401 
0.1674066385634373 
-0.09713480154712255 
-0.3644098464642405 
0.07930499895908447 
-0.006654489564106529 
-0.2921054466662258 
-0.446885606811616 
0.480747097803476 
-0.03480118564224092 
-0.3686659346655171 
-0.03444709547597748 
0.07079223232544288 
0.06835304322811378 
-0.03374045871261373 
0.08229224110610935 
-0.3793957099195719 
0.1977175794630193 
-0.09163084319099399 
-0.1502758048136297 
-0.1397235207283254 
-0.2140051038473758 
-0.05425623918509165 
0.5055241904756909 
-0.4310557612517637 
0.05125901225634468 
-0.1545075132583136 
0.03860432470259673 
-0.25329113409651 
-0.1142925664754007 
-0.5290521308530291 
-0.3799926452698852 
0.1063181855344612 
-0.1003821996221262 
-0.02328569055961373 
-0.1784652795424242 
0.5827530825520435 
0.124383188032822 
0.1017518171842183 
-0.2519001613832506 
0.1821980215856877 
0.03895399138386508 
-0.4096738377166796 
0.2754958536422774 
0.1548849536754651 
0.2273007159818773 
0.3494530928718288 
0.1602407210202894 
0.2122314563173455 
-0.08873312939934405 
-0.1163589729108533 
-0.008004451857589766 
0.07147675734286002 
0.2815766979555355 
-0.4860278621029334 
-0.1870345203364802 
-0.151750488135082 
0.1124969694230353 
0.2117934826683388 
-0.218068678676094 
0.3728046254364691 
0.07815280645493754 
0.06000750122787259 
0.02882381044512104 
-0.2970288438444972 
-0.01507458825196001 
0.3414855425039216 
0.2655333329828012 
-0.4528391629499413 
0.01919133759691817 
-0.05202666566411531 
0.03945535351878158 
-0.5470612139628361 
-0.02435324108405139 
-0.116137771779537 
0.2897493585450652 
-0.07777441280424811 
-0.03583494267967449 
0.2026855021914737 
-0.1376474726039505 
-0.2908071190747926 
0.223284605999943 
-0.2354469574281321 
0.1202653764592349 
-0.2634214180640935 
0.1174550897401696 
0.1610798638139719 
0.04663022645758255 
-0.02503232104459621 
-0.1168721725830087 
0.1096402562111497 
0.3088450334242063 
0.1150168954261654 
0.4141990190636151 
0.3983394062850922 
-0.1359411883451728 
0.3025883465585939 
-0.3300215898654199 
0.1721202428286019 
0.1910783866651198 
-0.1266707197370305 
-0.05005600662091397 
0.1740199661121232 
-0.1699655288857918 
-0.1247900890848491 
0.1742581094064686 
0.2006614517091544 
0.1733562876532114 
0.08471899114136502 
0.267837551071324 
-0.3094623160251593 
-0.4145883144513947 
0.4771550139164139 
0.3342567000531516 
0.2050334451100634 
0.2831574372611053 
0.08144330344037046 
-0.007971457735091621 
0.2262774886874914 
0.0816459497070833 
-0.02402353613488605 
-0.1988084105933641 
0.2734197375691509 
0.03278945748769446 
-0.2510352093078507 
0.1062138165167933 
0.01369538962135176 
-0.5579419911580662 
0.1207110059430912 
0.121700734045002 
0.03050506082489552 
-0.2624953885909782 
-0.04956316368336753 
0.3280451186248486 
0.1757013948434674 
-0.1525643364128484 
-0.1318815046156892 
0.08841387349555319 
-0.09041264640619375 
-0.2516737871411959 
0.1315155682793069 
0.04622679015219385 
-0.2890026434012407 
0.3209118578623708 
0.158462791178422 
0.1813354335720211 
-0.2229609213237242 
0.1563210726660851 
-0.1369683984622701 
-0.1282757327104121 
-0.02457421247986588 
-0.1413799477646071 
0.1409390176891653 
0.76409815163943 
-0.01162083469962573 
-0.161090065628279 
0.2577624731562149 
0.3547425065472653 
0.1308219810073395 
-0.0379951414385368 
0.3169921572614363 
-0.1194085500013534 
0.2000356983333157 
-0.07781386022670657 
